WIH
9.121672726500440476e-02 -9.470567086775205645e-01 5.240580949500901475e-01 -4.262559519759419047e-01 -2.713391846813990593e-01 2.882870509783985735e-01 6.469820949407181221e-01 3.081269498777163829e-01 3.058119968226471475e-01 -5.987758526037971762e-01 -4.088817375290527689e-01 -3.197288697837570304e-01 7.937921806213199538e-01 3.878642175255848645e-01 -6.473760457810582292e-01 4.515378711002064893e-01 3.422798940865905415e-01 9.010398884150865317e-01 -9.866223304974033326e-01 -5.138809475790706571e-03 -4.728516568999192593e-01 1.108380198284739659e-01 4.698626345696488293e-01 -4.107455993258015692e-01 2.869778594860055154e-01 2.146754370499093234e-02 -7.032164532547671154e-01 -8.703482835972240483e-01 -2.209058509371757406e-01 -7.976222265789019161e-01
5.078072230601342607e-01 -6.630475017412775784e-01 6.598735577439771571e-01 5.716777885370489809e-01 6.863053535435732488e-01 8.930658579398513819e-01 -2.110851422097899110e-01 6.334294919851590766e-01 -2.885244679429974646e-01 2.409271690619814166e-01 -8.546146120359754406e-02 -1.197114045576095354e-01 3.677900258220474505e-01 8.989682010973003567e-01 3.308638069792326775e-01 9.900770894687225265e-01 7.640901836577607131e-01 -7.413754016819233961e-01 -3.045351193095766629e-01 3.840524175134913953e-01 -7.963341131644814386e-01 -1.219820574479371089e-01 1.516600196978434845e-02 -9.898471239149690959e-01 8.227733190812391850e-01 -7.008153474268612459e-01 -3.447731686742148138e-01 -7.691050438719937432e-01 -1.901000512237358553e-01 1.496232228745975057e-02
9.333789378790096070e-01 -9.030477017219866731e-01 -4.763391547842399376e-02 -1.083524845698824457e-02 9.296611466090403120e-01 2.856172941829244749e-01 -1.857959027394127105e-01 -8.260154060542896914e-01 -1.673248336052959306e-01 8.917588565469241058e-01 -5.614088226082851740e-01 -3.386044298596175839e-01 9.560313085243337117e-01 5.342420112073009708e-01 3.318007016978041790e-02 7.685471316745076109e-01 -5.717493337834458345e-01 -8.862832469005010871e-02 -6.785084783013728416e-01 2.705794398043632754e-01 4.824547525607834064e-01 8.429845424617588012e-01 4.115493708123783012e-01 1.973435039593485207e-01 -6.938576773326834424e-01 1.264194851678328568e-01 -2.478364500449512509e-01 8.265250754923734178e-01 1.674264497081334735e-01 1.530719142113772246e-01
-2.955990692005259213e-01 -9.073778797064131485e-01 7.461306895202595157e-01 2.985878507772807833e-01 -2.392203642624188831e-01 -7.194690111257460163e-01 -1.906365135581735704e-01 9.308133602674586449e-01 7.421836603895985984e-01 -2.966093433500800458e-01 -6.256927451396749884e-01 -6.360393737668592617e-01 4.317785428083089627e-01 -9.969034351958099283e-01 2.673019427649889757e-01 5.947027511361433483e-01 7.404994299106950617e-01 -6.706366243448564912e-01 -5.826796052377207769e-01 5.850911440316171053e-01 3.610590868957739286e-01 -6.205889395930754837e-01 -7.732674826107481802e-01 -8.515364037093255956e-01 -7.401338791815852414e-01 5.955436231254416235e-01 9.234886844812106865e-01 -8.411737666220906462e-01 9.836764978445204921e-01 2.952113352196616969e-01
7.564547512792612061e-01 4.836686896548836323e-01 -1.066668970628104063e-01 -7.638918872881821365e-01 7.720844156931627733e-01 -8.377059613844719532e-01 7.339838716601980728e-01 2.830107100688072919e-02 -1.783888941050320032e-01 -1.271484775708437986e-01 -1.552605607510038066e-01 -1.936258998792470543e-01 4.042372302924248650e-01 9.032785356203043570e-01 -2.745731528420458645e-01 7.015733935794268294e-01 7.534346929442725660e-02 -5.146946923498580961e-01 -3.800194758623638425e-01 -9.618126687565256017e-01 -7.034320237772173634e-01 -4.369258042268064912e-03 -8.208454583293496309e-01 1.327562222161031702e-01 6.226473135813725968e-01 7.150130789871389503e-02 -4.718287284012094851e-01 -2.277822699343341473e-01 8.378532456518359428e-01 5.666783060924893700e-01
-6.827243462691170439e-01 -1.949274120374235864e-01 -5.437715834761691625e-02 7.332660272510744814e-01 4.896642463451070793e-01 -7.687355526597978717e-01 -3.397706762434140604e-01 6.127991106188821480e-01 3.927615537650432920e-01 8.745180006733288547e-01 6.805186587052889369e-01 -3.196579399929728726e-01 7.534929516745483280e-01 -3.924398593744711228e-01 -9.645391978988060444e-02 -2.178046158826296708e-01 2.976579699529930956e-01 6.138481543516682848e-01 8.190941373661457803e-01 -3.974624359908358606e-01 7.898854226006970514e-01 -7.882472976897014760e-02 7.265933911599349315e-01 -2.117780457206979161e-01 -3.109121760339996765e-01 -6.594825426782247035e-02 -6.566127550334812657e-01 5.666574150145395894e-01 8.807454614722578512e-01 -6.577733408659514058e-01
-9.623917295182231602e-01 -9.615348713131974812e-01 5.949480689486295049e-01 5.876820126812114520e-01 6.043530911576120435e-01 -7.030707635193111926e-02 5.067280865541756718e-01 -1.583112995930369138e-01 -4.201647058212194530e-01 -5.338465148147129025e-01 6.809410346107891421e-02 -3.897977140211872360e-01 2.423347825400536948e-01 3.381721766432661536e-01 -2.225326247083685427e-01 4.620169739824087074e-01 7.381835579241480261e-01 -1.514527873005504510e-01 -5.196719264843852049e-01 3.530087527852800999e-01 2.403583478861570644e-01 7.327369587990755218e-01 -4.267764724486291517e-01 5.712643823694671941e-01 9.937550674012309848e-01 -3.178438662925795466e-01 3.289201581930851770e-01 -1.328812545338395879e-01 4.246813115389942439e-01 9.718326583662129092e-01
2.553154505710890643e-01 -7.398222433262957587e-02 9.258445852321446345e-01 4.236525657503618092e-01 3.034979051163224639e-01 -7.192071127573316236e-01 3.888734711866828064e-01 2.701779561191393064e-01 7.639749665556887503e-01 -4.145755038423730721e-01 8.150730683571623114e-01 5.755485767274528541e-01 4.090248479283837835e-01 -1.968086686110093186e-01 5.197892423752283886e-01 2.552953165367009003e-01 -6.513915760881048289e-01 6.048455159118404367e-01 -8.645360910669237509e-01 -9.700438494935568201e-01 -6.679871134223906992e-01 -5.435105306728880148e-01 -7.906307348191270457e-01 -1.099053907368863214e-01 -4.618956558545039837e-01 7.294781655633975070e-01 -6.297880262762576287e-01 2.960978295168981145e-01 -9.327250117765040205e-01 6.127355063538117985e-01
-7.950611075886702128e-01 -8.836902351194977356e-01 1.063576452054291188e-01 -2.310402676256289034e-01 -8.710434059007317043e-01 5.058829207100723480e-02 -9.744519202391033197e-01 -2.399660058703421139e-01 9.288137312152944247e-02 8.473524097804667754e-01 -2.418440564143495841e-01 -5.326332694365381037e-01 6.791550521650835393e-02 -6.493016950798802256e-02 -7.305541753026691953e-01 6.952698224737201560e-01 7.303895047866690859e-01 -2.302679633960118544e-01 -2.036598993798233170e-01 -2.676078813756848085e-01 -7.015614126131077821e-01 -9.533992927898020664e-01 -5.394862100314861131e-01 -5.531144233000320209e-01 5.322227441199984810e-01 6.786096736487303716e-01 8.085723213096971396e-01 4.292322619063848599e-02 -4.468842996297024417e-01 -5.065829953711609157e-01
-4.849310205301184951e-01 1.015011846059539202e-01 -3.139553976798663548e-01 -4.654794602215108767e-01 9.923016905421744305e-01 -1.233290386622196699e-01 -9.817057278526775121e-02 -2.706937470663921541e-01 9.838718735483982236e-01 6.617850699597316311e-01 4.889031149987508318e-01 -2.441019323545079445e-02 6.042138464075521576e-01 -9.015029638412763724e-01 6.891613050161140563e-01 5.361954062258822429e-01 6.620959736624894010e-01 -1.002683559250352463e-01 -1.395487091632989785e-01 -2.401329948804098446e-01 8.850860354157941146e-01 -1.096767623550152226e-01 1.573867283346419566e-01 -1.049775629261824328e-01 -1.924123806508462042e-01 5.350703167503680913e-01 6.807323516864545176e-01 8.221352819889524710e-01 -5.893654873790303839e-01 1.640823870870327106e-01
-4.130707681090368677e-01 3.829153820734569891e-01 8.721333713291956613e-01 8.335236842588011896e-02 -7.070328701188466347e-02 -6.213101821373907541e-01 6.903137019464522517e-02 7.801699282646061828e-01 4.598456810720181753e-01 6.656569778830161432e-01 5.825862091848545976e-01 -5.031948710222544641e-02 -4.203849202044054323e-01 -3.361338565253955135e-01 9.426554305948986467e-02 -2.053182117827494491e-01 -7.059029978116633242e-01 -8.420061122797057873e-01 4.106556090371156209e-01 -4.889043346486237063e-01 -2.892151376040132948e-01 -9.032163387681440003e-01 -7.603197754654646978e-01 2.294747347237529045e-01 -9.902215533611360421e-01 -3.326286934720013022e-02 -6.828182842591308255e-01 -3.523404687267754909e-01 -8.604643796044348925e-01 6.664766716049297379e-01
-2.352622305293938787e-02 -7.453034582808417685e-01 5.739883448584988113e-01 6.702162521277430507e-01 -7.533725896639313913e-01 -5.161280654964992554e-01 -9.491883443967470413e-01 6.655651628386860530e-02 8.330656717816671275e-01 -2.957573159389874640e-01 -1.292070909966693826e-01 -5.702567403560070414e-01 -8.613465366122514677e-01 -5.887515748749447830e-01 3.364318190819330923e-01 5.591719387520204254e-01 5.241585888452442443e-01 -8.540443460642148654e-01 3.344969032464435443e-01 -6.189251090896750185e-01 5.033354104625864522e-02 7.663345527947362790e-01 8.941423377906421166e-02 9.732231235520802937e-01 -3.729977567905107261e-01 -8.337265884315907538e-01 8.163832330636757728e-01 9.763524872139295319e-02 9.211614939174925798e-01 8.507872751467144834e-01
1.304073647406240599e-01 1.710871198993127451e-01 3.581543786729681211e-01 4.058648122571760219e-01 5.240577416481455586e-01 -6.695390595504812081e-01 9.749477774199125646e-01 4.776138822725742861e-01 1.204126834369557142e-01 6.901179692681261857e-01 4.005561636628748312e-01 -5.621168217597533739e-02 -1.643573385419039024e-01 -7.059105607091830104e-01 2.511343383350310710e-01 7.544553962048943241e-01 5.685738470644505771e-01 9.408147031921624270e-01 -9.835472376398848304e-01 7.668826937222423812e-01 8.556873492095121714e-01 4.470542769411658401e-01 -5.508385827474918672e-01 -1.870410425972731938e-01 -8.037087456817439968e-01 -1.617308347077343056e-01 1.349004192999211094e-01 -8.160917598740523582e-01 3.133556063919572532e-01 3.676944677792536864e-01
4.279091914707927047e-01 7.403325774417232052e-01 9.678927693078860361e-01 -3.281083122805434904e-01 3.097975184503358737e-01 4.360592647296239743e-01 -5.460605291474500689e-01 -1.497576460128337630e-02 5.804859730692866204e-01 8.619008899935560741e-01 -1.702673270434448549e-01 -4.779733243960979650e-01 3.497086810820104197e-01 -4.298786686512577337e-01 -5.473830093027844956e-01 -4.936280443641695159e-01 -4.595738861206353221e-01 3.500768874771744699e-01 6.965243924700864619e-02 -4.826853890551259796e-01 -7.691465185648039826e-01 -7.509467651138626021e-01 -2.413758351433287486e-01 2.830468176205361841e-01 4.520879832356690109e-01 7.547952213436591729e-01 3.173769764628711076e-01 7.304570040453922664e-01 5.483344608446686363e-01 -8.963820237892902165e-01
8.481354755329957307e-01 -9.705827328492256934e-01 -7.474412629926133755e-01 -2.671585960160910433e-02 8.264974364553187014e-01 8.005032316329993014e-01 -4.894082916694634244e-01 7.678605531247268967e-01 -1.222654832305397482e-01 -9.102687356802787733e-01 -5.944739151010209888e-01 -1.228658959413389540e-01 7.854917779049118698e-01 9.607497852716266884e-01 -8.887314876791060358e-01 -1.718387115618260630e-01 -9.512676625435562139e-02 3.026335975992289762e-01 -1.690822818668779315e-01 -7.140244093941053860e-01 -8.215980417094555233e-02 -5.250904008650316701e-01 6.260646965099433414e-01 9.355007088000872884e-01 8.352536168280226825e-01 -4.004493135366158502e-02 4.044015495091060064e-01 -2.709044229872368259e-01 -8.021485462921983389e-01 -1.987209850410208700e-01
-5.110632569615579379e-02 -2.049044706600439969e-01 4.280742887527727580e-01 4.585311228080379276e-01 1.629086039339421588e-01 5.114892441230510789e-01 6.779009080969929935e-01 7.496680653450197296e-01 6.872607528926167886e-01 -8.565389794619814312e-01 6.905811555676676372e-01 6.084789432035324630e-01 -6.126034095721859529e-01 6.228774342674207008e-03 -6.933252367366997682e-01 5.155864224266227813e-01 2.947189144604193262e-02 -7.002322869935316829e-01 -9.622577428586797099e-01 9.908183615084864559e-01 4.492931362384164351e-01 4.174714136283959598e-01 9.084260226624476520e-01 7.801786558840315688e-01 -1.612521354755238334e-01 -5.127470509887233074e-01 3.461602000290637249e-01 8.443339410775471121e-01 8.169369770020057375e-01 -6.222443354244879821e-01
5.327763442060000632e-01 -8.865989595880519047e-02 1.928966282445687686e-01 -1.245503105292626866e-01 4.067593846092352194e-01 7.454099104599563042e-01 -8.966365328587928563e-01 6.284691184155033472e-01 -8.614741883239904752e-01 6.509595271679617934e-01 -3.041248090469890197e-01 -2.411979511566364476e-01 7.399079825081447126e-01 5.079602232315685306e-01 6.479241218685902748e-01 -1.621373170214930326e-01 2.684264220410761403e-01 8.611672161465082631e-01 7.178492555252224960e-01 -4.558103752930029451e-01 -3.269186221052549080e-01 -6.702706042288730792e-02 3.180638217870837003e-01 1.477331759812905432e-03 3.679434878945770926e-01 -3.521324948809547717e-01 -7.323245088656191726e-01 5.575636249730768768e-01 -4.072715479477229117e-01 7.755822870140616221e-01
-8.387768353239337671e-01 7.560363029362233700e-01 1.266402486739741651e-01 6.661215441767045498e-01 2.010014734759302257e-02 -3.896172759862603918e-02 -4.012930232514160256e-01 -9.327749537232739030e-01 3.209068702304949117e-01 -5.400282734422998665e-01 1.589052856477086717e-01 7.056135087899428893e-01 2.401401236547040519e-01 5.732661924102016027e-01 5.219347981996513841e-01 4.038681102971897197e-02 8.698052642664015899e-01 7.218790324683739268e-01 5.515991191561298024e-02 -1.402687095140642271e-01 3.332489594194771865e-01 1.982541187369661895e-01 -7.994766164647799656e-01 -9.858456542794362676e-01 8.225543899740328513e-02 -8.762463327038940708e-01 5.037565092349489682e-01 -8.446053941545186294e-01 3.469434835194595834e-01 9.584703590649341631e-01
-8.001870864592457444e-01 9.594836872343823764e-01 6.080903220553814936e-01 -8.179099460312104775e-01 7.517648868021613584e-01 -9.858728608593825271e-02 -4.846090725062761617e-01 -2.017522278044221462e-01 -4.773471328869871577e-02 -1.219096535691441829e-01 8.885449048153295504e-01 4.977968196303141912e-01 -7.451815891235544775e-01 -7.708053818132889479e-01 -7.637346103638169570e-01 -5.433946117698280620e-01 -7.845756039021423156e-02 -7.072050962413811703e-02 1.125471799369981429e-01 -5.272019052351950563e-02 8.398753954666835497e-01 -4.161891983922252347e-01 4.132339887799254541e-01 -9.018449822851355435e-01 6.078528161847251976e-01 -3.929457774584372842e-01 7.381579086087108887e-01 9.243390939014484164e-01 1.737736137690630844e-01 3.236463013807711064e-01
-7.126409050218129870e-02 1.685548150469085016e-02 -1.201878232682949132e-01 6.763238690481319093e-01 -1.137977822525213512e-01 -8.187034886295432301e-01 -8.162940831219227533e-01 3.464996010652641178e-01 7.341263624088316675e-01 5.210274794783118502e-01 -5.774419408156488132e-01 9.438079345934546893e-01 8.627709422399076900e-01 -1.046434862142153754e-02 8.800139133563951166e-01 -6.541493614837887716e-01 3.113314200558416900e-01 8.095280699886200360e-01 -6.554223747515057763e-01 7.016835068984894619e-01 1.474178017016085640e-01 -3.946576120734210935e-01 5.851862131619298690e-01 -5.796045311873194716e-01 9.384380309541457965e-01 8.973568215287548444e-01 -9.194259665208321941e-01 -8.431886958224994455e-01 -9.538375383839539090e-01 9.343712968206681069e-01
-8.524984732496143636e-01 9.514690244103329864e-01 1.084852273841716563e-01 3.427353685247436221e-01 -6.091651244175262381e-01 8.189869262328337562e-01 -9.108830271889816199e-01 4.871456342456170763e-01 -2.555967146208715235e-02 8.590693125042969669e-01 -4.675292012112925999e-01 -3.073366979167455604e-01 -5.268199096030687922e-01 1.492104338211068804e-01 5.515079578226345092e-01 2.927379160269638625e-01 5.543638935130261736e-01 -9.821703497637579439e-01 -7.241413282194104628e-01 9.415340291510154724e-01 2.280483236313781692e-01 -3.514527092986152734e-01 5.507486488319439655e-01 -2.579617272251715221e-01 3.053620178628217996e-01 -4.049026587230388774e-01 8.723294137180126473e-01 -1.089915360211104467e-01 -5.240832941523261290e-01 -7.515199140123147714e-01
9.221919900652117974e-01 -3.707501117711722305e-01 -8.137608009113448393e-01 3.688881793564182665e-01 4.885293051229004924e-01 -6.092768632851335298e-01 -1.979868514469893537e-01 -5.672718970529146976e-01 2.495794988764066247e-02 -4.016190005048636547e-01 -4.497373187109257042e-01 1.541220952249076070e-01 5.913180737804391018e-01 3.100042733479453361e-01 -6.988441252786945501e-01 -9.314932952317973580e-01 -8.617781192031337412e-01 -4.737112902160278693e-03 -5.858189694662205849e-01 8.358286415985780593e-01 -7.961515199683553146e-01 -7.187431686038998624e-01 8.031978784264004467e-02 -4.758336911203819852e-01 -7.357385967144871586e-01 -3.042912605730845321e-01 -9.586368183614784044e-01 5.264004207487775755e-01 6.786622446395367270e-01 -3.083088976509971157e-01
-3.639188360707461545e-01 4.359842868557217699e-01 -1.909107869116692946e-01 -7.164728240338311682e-01 1.734952221744618939e-01 4.068699123795425088e-01 3.309151303245592146e-01 -9.171465515312116068e-03 4.171606351868060170e-01 6.325666071682540803e-01 -6.771217638675592898e-01 9.245289163421694933e-01 -8.216183591253078955e-01 -2.487363200400198870e-01 9.719340376432477058e-01 -9.092461058683833919e-01 2.479715307886047881e-01 -6.570888117099660253e-01 -4.353834311922621936e-02 4.608220197450019207e-01 1.892015417219039541e-02 5.450389467593641513e-01 -6.493268867779677933e-01 -4.254412308505881590e-01 -5.198527261298071522e-01 -3.456069111978985475e-01 -1.893102134112742974e-01 6.160496470203362662e-01 -2.677295547229134876e-01 1.780447292394218284e-01
2.972813528573299280e-01 -4.847160271386750097e-01 5.052946971659246778e-01 5.734717679837058046e-01 7.776747404747157422e-01 -5.024163509895072099e-01 2.550122450229797000e-01 2.002772812477828790e-01 -4.257309408330394174e-01 4.691830175542113235e-01 -3.510980705559128001e-01 3.695569974416514913e-01 6.877749692872949794e-01 -8.268481311326949523e-01 -7.180421525916720338e-01 5.932424987031976737e-01 -5.465710204087654844e-01 -7.778311218421207762e-01 4.903541114720710858e-02 7.370660055408273514e-02 9.292440337465168732e-02 4.857370962189042629e-01 4.168753486945986353e-01 9.222738740436950966e-01 8.923781954338576572e-01 3.960227904240898322e-01 2.450632744169662924e-01 -3.545774235329786084e-01 1.845138290496883826e-02 -3.089267605605261480e-02
-3.321600750972522054e-01 -8.189556398106123680e-02 -2.913924173479107704e-01 -7.503081754398202019e-01 -5.083532428042536466e-01 -2.408152270859718058e-01 3.686813697680220159e-01 1.154045195349451269e-01 -6.797437600919031819e-01 4.676117164410016347e-01 -6.486453979090092137e-01 4.591277570691232324e-01 8.700244465354642909e-01 2.309059674726132716e-01 -2.904063684290780767e-01 5.651247645125763164e-01 3.515448575848287849e-01 5.318310241510111336e-01 -3.753873230413646844e-01 -3.376560890416484551e-01 -4.537799688713355373e-01 -1.688257350579047689e-02 2.450402916093814554e-01 -7.388900998734799774e-01 -3.703403276599908089e-01 9.050253521114843824e-01 -4.233817460407613975e-01 -6.781580101400210836e-01 5.276593824788471387e-01 -3.658275101374415250e-01
-2.645969234300835637e-01 -9.476925231547821404e-01 9.155457818136010228e-01 4.875901626040572978e-01 9.673480324814895948e-01 4.030278149741264304e-01 -7.127121560735223404e-01 8.915334127583858237e-01 3.195029129410726920e-01 -5.755015779168832779e-01 -1.048703377046942276e-01 8.045698416867097524e-01 -6.378730102746890118e-01 5.985333646221444592e-01 3.675736806066016715e-01 -1.411535440855080648e-01 4.416620320670030519e-01 -8.379078450161059344e-02 6.485810553749757901e-01 2.127973559779643420e-01 -5.126808740862991431e-01 9.988750990962924625e-01 -2.105543297203018582e-01 1.807910616527474978e-01 9.039047797535795237e-01 -8.940028946806621857e-01 6.840058872173351290e-01 7.991740093773909148e-01 3.202927861477085081e-01 -2.200399530099654832e-01
-7.164553704068321593e-01 -5.103776385762712753e-01 8.634384519629878518e-01 -7.181241718724260537e-01 -8.883083852194932906e-01 4.318382033881429383e-01 -8.248059622872161434e-02 8.929837583659463451e-01 -6.194703028258135014e-01 9.601498512119444051e-02 7.245188811894303083e-01 -3.687989794207988670e-01 9.307761033103585380e-01 8.711326259393525895e-01 -5.472227106857947554e-01 9.603250072885536337e-01 9.151596581660093044e-01 -4.968771840183840993e-01 8.724534815177640290e-01 5.069513096214322001e-01 -1.975024134219534044e-01 -7.375473586494303291e-01 4.723385956981298595e-01 1.839014869006940778e-01 -3.947635206689512621e-01 -7.086345292353510850e-01 -2.536729289755472738e-01 -3.301624110795051692e-01 9.358416008992616053e-01 -3.321464012901200746e-01
-1.035076304851070272e-01 -1.278258973722068426e-02 -7.205137821773730522e-01 -2.113932027143257120e-01 6.440833791984081902e-01 -3.228560739567793991e-01 -8.393207679549816724e-01 6.949707769959609927e-01 9.681751738267430074e-01 -7.557017766017681826e-01 8.798064219912145045e-01 3.882585362033701415e-01 -6.345633851520382507e-02 8.619845444506399890e-01 7.602707682930638367e-01 7.125106937740377511e-02 -9.081920657068143221e-01 1.716425074196721301e-01 3.352152226523963385e-01 6.993332775345195707e-02 -4.049112825959857442e-01 4.058192566818981106e-01 -4.973912349296758517e-01 7.009372684066730308e-01 9.572892490861335535e-01 6.122848873704023198e-02 6.688460971912306707e-01 7.663689864054350487e-01 9.271775415095782069e-01 -8.510404695704971711e-01
-3.190717196338999084e-01 -5.391383825605884361e-01 3.866872155295557612e-01 3.511334809788182465e-01 5.080717486034695973e-01 3.410733723475296575e-01 7.562497985803042777e-01 8.364703856118691494e-01 2.455855736154681779e-01 2.511882161944463121e-01 -2.066065093715918621e-02 -4.922378335499704161e-01 6.347409246770279179e-01 4.900877348494161456e-01 -5.727203201119932530e-01 -6.815986136904379489e-01 4.840448432437503001e-01 -2.940091161186353386e-01 -8.593623509094234780e-01 -8.099306043722473980e-01 1.774021742894389408e-01 1.540962462366342045e-01 -3.906332755491084274e-01 9.165596715386437054e-02 2.173549238355252378e-01 -6.648673958366730918e-01 4.322433793165403326e-01 -1.970069924720851962e-01 -7.509675776284936433e-01 -3.120051449694345447e-01
3.537477577938785700e-01 8.790437041920056149e-01 -5.578820938381456873e-01 2.970338125400955320e-01 8.571862753324608342e-01 -3.512809148604185694e-01 2.749319351320853588e-01 -5.037416093570223907e-01 -5.307898007519407102e-03 8.166858170654658355e-01 -4.327068475664286318e-01 9.420241644648150725e-01 -8.481069234935889600e-01 8.911306948150823359e-01 5.530123230216277275e-01 3.259642289476036847e-01 8.041332807121581716e-01 5.461058120286992335e-01 -2.782145811025560356e-02 -3.228643475859156453e-01 8.317650714871804851e-01 -8.401952482534862376e-01 1.478592406553191907e-02 1.131765537457471993e-01 -4.144794651366900951e-02 -6.891705538548076326e-02 3.519098348347009519e-01 -6.907908902719082089e-01 8.453454189830467147e-01 6.527806544036729441e-02
-4.696184493696957674e-01 -9.160380246008761329e-01 -2.470004258996079116e-01 5.979094823571950990e-01 9.800103840608400674e-01 -3.217181386766652107e-01 5.011097222486253777e-01 -8.579697228488063487e-01 -2.895380648068797136e-01 -6.942036219336644720e-02 -2.714875115944768158e-01 1.757521029769741894e-01 -4.749316318586387364e-01 1.225133094089883024e-01 -5.407249624232479679e-01 8.416038865741897190e-01 -3.613938533086273885e-01 8.595671335574230909e-01 2.160789409540144757e-01 -5.364122442277634573e-01 8.182057667000153245e-01 5.573266904817126832e-01 -8.967913637445015240e-01 9.064683662603620906e-01 5.335615768421648752e-01 -3.988302698506525079e-01 -7.249651764905573614e-01 6.344993870952835291e-01 5.020430115226992562e-02 4.167731082854333469e-01
5.870246681494146745e-01 9.337948060372887049e-01 -5.573386317737281104e-01 3.081988202232537333e-01 3.635070249093881323e-01 3.472639634601215608e-01 1.708534668734984496e-01 -9.435660453344287824e-01 -5.323408735460719576e-01 -9.281802901299496256e-01 -8.544027768141002621e-01 5.864845825134226143e-01 1.401405428919615392e-01 -4.348560059660537824e-01 -4.023309187079444627e-01 -1.552037939977202186e-01 -7.674361057140004494e-01 -5.064684649535970973e-01 -9.760314179914002519e-01 -8.137990667545471624e-01 6.081919314186807757e-01 -4.729197502005086928e-01 -1.186607421804002360e-01 -8.115147353843910061e-01 6.252259329064169258e-01 -7.912376624036581152e-01 -6.988849626734976450e-01 8.505208386955818156e-01 3.320268938135761960e-01 -5.593468982914329146e-02
5.997531413474285200e-01 7.014687389985366783e-01 4.634216285103243682e-01 2.880515617773263815e-01 -7.658071359499133424e-01 -3.536712167130064144e-02 3.845290679421692892e-01 3.244299825659495151e-01 -1.800015049748485141e-01 6.880824529029250236e-01 -2.871336176478439528e-01 -5.673563193876283162e-01 -9.852171944970511408e-01 -4.572370367773477828e-01 -7.646069623484702538e-01 2.882261706971230852e-01 -1.008768433837459316e-01 -6.068104325932265342e-01 5.400231651352578321e-01 -8.946156090254360205e-01 -2.957187309149301169e-01 -1.872684698898250677e-01 4.517052908011929824e-01 4.093776864517651437e-01 -1.986516059284341995e-01 -5.190333155667365972e-01 -8.988068652329627151e-01 -8.053152959479914497e-01 -9.211656938502766900e-01 -4.797643546144240156e-01
6.747479695624652996e-01 -4.574301688623800266e-01 4.681336740008703590e-01 -2.156124498820925217e-01 3.409198631062446694e-01 1.832042619667790528e-01 -8.431517628600941894e-01 -8.625194636248287652e-03 9.020850108918346821e-01 6.130518797089039573e-01 -8.137235775831058726e-01 4.854612287655412084e-01 1.998810781429443406e-01 8.334147891529928298e-01 -3.497185992175491087e-01 -5.226462071915261021e-02 -3.317896242851694349e-03 6.990232321945784311e-02 7.429277548151247412e-01 -5.725843536451407090e-01 -8.932436672496075758e-01 -1.495895346013327576e-01 -8.369629336244274187e-01 4.242599457483701153e-01 -2.401312818078541952e-02 -1.759491187275335211e-01 -3.854497992400480744e-01 6.837789396768523265e-01 -7.868128751622021078e-01 -4.044471403419718225e-01
7.214907036638847915e-01 -9.117090554374016609e-01 -9.488188868422475775e-01 -4.509831580347346547e-01 9.356289666029772301e-01 -8.122783259016977744e-03 -9.744575916175787222e-01 -9.201103927904247248e-01 2.601606561236048665e-02 4.668349758910940728e-01 -3.644608400802200054e-01 6.449515162614667396e-01 8.252291463517267278e-01 4.778958820531417628e-01 3.547942725025223787e-01 1.247160317536126634e-01 5.886040548798729954e-01 -1.037687996616160346e-01 -2.830208268902046492e-02 -4.407408581628952104e-01 -5.474402385060117560e-01 1.658246276962388292e-03 -8.275937371783814722e-01 -8.121401129065261015e-01 5.417150121917697625e-01 -7.680978990548918972e-01 8.572905246319469930e-01 -3.586092919155524639e-01 -9.613894286352104857e-01 -3.823424665633082808e-01
-4.442120202105869775e-01 6.938566096174013653e-01 1.977375354488769832e-01 -7.779192426895108481e-01 -8.247194993746791436e-01 -6.640864673544151220e-01 -2.357606843193160995e-01 -7.840743719928685573e-01 5.169217219447652667e-01 8.798042542765682761e-02 5.077196250093721774e-01 -1.582807508344623026e-01 -6.589287445366824869e-01 7.691427480776427128e-01 3.321651413096971539e-01 -5.430780973619263596e-01 9.210301713339401619e-01 7.669553461078804091e-01 2.369417351635199828e-02 5.679758349836036002e-01 4.660669714827661569e-01 -6.879975608812993748e-01 -9.591646962848300317e-01 4.416160369865858304e-02 1.506295183954240724e-01 -6.158094134136019027e-02 4.795846712107826315e-01 -1.089917818633940744e-01 8.275163125503770534e-01 -9.209579646892988025e-01
-6.168051289820483118e-01 6.563242092431501584e-01 6.262733522388742591e-01 2.587006936400454080e-02 9.542275956324195452e-01 1.222924108077294569e-01 -2.100263419439108992e-01 3.668509937905503615e-01 -1.226377106964242000e-02 8.794449997127865570e-01 -1.910508895285321362e-01 8.580810310607067670e-02 9.692274683777670624e-03 1.661823950068854472e-01 9.928226250845852974e-01 -1.704961783165173383e-01 4.108241004985571099e-01 -6.951867755220942913e-01 -6.299802526370485989e-01 1.614248211152241042e-01 1.354334827956805466e-02 7.049421914969657144e-02 -2.988805489644608127e-02 -9.460365628123302839e-01 -6.951715807234741529e-02 -1.939881859697906719e-01 -7.649527972200664827e-01 6.383285543816521468e-01 3.913679862560008882e-01 -2.301043668241982143e-01
-4.526227852692157189e-02 -2.038331811539293714e-01 4.191775899141394479e-01 -1.416663509781976305e-01 -9.202298126112244681e-02 7.510836346157622190e-01 -9.403474281900450205e-01 -4.958687677367304980e-01 -2.219320378604912047e-01 -2.731144862627614689e-01 4.166950441268311295e-02 -8.058694563809972733e-01 3.901676933679036896e-01 8.525201043705377124e-01 7.394748060967704095e-01 -6.455938764962429466e-02 -8.178855520124688194e-01 -2.497778607102862924e-01 9.663963378110677072e-01 -4.480933753765112965e-02 9.469350021457249023e-01 9.940799524184630309e-01 6.167716867183363483e-02 -6.849831089269997619e-01 -6.214156745484065991e-02 4.597595978908348147e-01 -5.968232953667022000e-01 -4.290855048506694858e-01 -9.050329817182485581e-02 5.944171831097396774e-01
4.714214412332642934e-01 -1.234869970423339708e-01 -6.973296251338303442e-01 3.677029175826045937e-01 -9.951022389281478642e-01 8.539624018070500755e-01 2.425677176249275424e-01 -7.039915118332058519e-01 9.778337435965471780e-01 4.649169027352746397e-01 9.064511453002935815e-01 -3.612426850284852220e-01 -8.400258296649684153e-01 -6.389315489884733745e-01 3.002579819815668905e-01 2.714078958351917037e-01 -1.806225665375942036e-01 -2.292940360386261089e-01 2.821050363963291119e-01 -2.069870571711715235e-01 -9.471720347327186040e-01 5.423580405475035837e-01 -6.544945993450683730e-01 -5.308919638989734180e-01 1.782774013511004979e-02 7.841338785301675829e-01 1.803406618109889559e-01 3.957463278973423759e-01 1.204974924959696658e-01 -7.314313473205016347e-01
-4.651322707189625705e-01 -4.857122219173203720e-02 -4.279858088471155360e-05 3.940179759348926281e-01 1.434755602349243042e-01 -1.320704526485317054e-01 -5.681084523828298094e-01 -3.137128461968927140e-01 -3.483516003042597675e-01 9.490676929807295714e-01 5.522513480344329873e-01 3.201579290884001283e-01 -9.503894321673945766e-01 -8.760565506878663644e-01 2.579469223233544009e-02 -3.487643208838529796e-02 -5.315188527524078443e-01 -7.518594477182171110e-01 -2.546942330737548832e-01 9.970700646936415668e-01 -2.370857877256715707e-01 8.632241537489806493e-01 -2.784492112685184317e-02 -5.720616352275487149e-01 -1.058301057735024087e-02 -7.964485591183592117e-01 3.776509628471808599e-01 -7.303096490797854612e-01 1.063604928107691749e-01 1.661183514248084914e-01
-2.137191899359422442e-01 8.577703390273354600e-01 -2.912380699777106230e-01 -8.086202068227357209e-01 3.216669310008936633e-01 -5.407587544626718534e-01 3.978514804637481306e-01 8.329070913617573346e-01 9.969885359319216045e-01 9.706142639382563386e-01 -6.669843417549822240e-01 -8.578503152579853852e-01 -9.390495154073715822e-01 -7.916529742771132305e-01 -6.308270567998816025e-01 3.344918673513266882e-01 -7.101724553038335497e-02 6.881412982846235593e-01 1.470009123089336955e-01 2.727264486544029101e-02 -4.791857008711731813e-01 -7.113131314716305553e-01 5.971536231286060925e-01 -2.457410165944338976e-01 -2.685246108023413569e-01 6.185633508693905158e-01 -8.633602000252805775e-01 9.066285817170521844e-02 -3.684134143694287045e-01 9.295992817643150552e-01
7.319421530490258787e-01 -7.176341039212448258e-01 2.187521288132956709e-01 -5.670445728286598319e-01 4.249424515779681027e-02 -1.020217234603513351e-01 -4.996345775047517090e-01 7.892116680216618718e-01 -2.688063788308941437e-01 -6.408985875112711561e-01 -3.617594558479515499e-01 8.862918705966783550e-01 -2.076120592376120011e-01 1.439760051807814079e-01 -7.838163383824979791e-01 7.425270524622034074e-01 -6.832347534526662935e-02 -5.703750643254048569e-01 -1.450574079529836635e-01 4.931003917322882568e-01 4.294082153625369824e-01 -9.001112559976985894e-01 -9.786649323534416522e-01 4.023561658039358502e-01 1.768774910257640554e-01 6.776833258374651558e-01 -8.057567059001004006e-01 9.314612909237850458e-01 -8.073499454520201013e-01 1.129855494806745048e-01
1.086054326301671286e-01 -1.138621787383246597e-01 3.484481340134596983e-01 6.812492291954183044e-01 -3.343419773039952303e-01 6.002818821690860673e-01 9.477904123994286278e-01 -3.641098776948805127e-01 5.502961450993907322e-01 6.827381506506736697e-01 8.215596849632138543e-01 8.730826184825267733e-01 7.124847465557865300e-01 -4.721453288498279055e-01 -4.459688500468313443e-01 -4.514038340289271978e-01 -4.615660332245672404e-01 -5.068557154451023283e-01 -9.493833716314614701e-01 2.450935595103294062e-01 -2.466174214874865267e-01 -2.728015600170496935e-02 -6.032339969952688064e-01 9.872607574708799349e-01 -9.599812910189914339e-01 1.265995589082226924e-01 -9.404186874469361301e-01 -9.275525203834540378e-01 9.071096409323392562e-01 7.927346540129716068e-01
-4.503696745436323590e-01 -1.227620094607020929e-01 4.301462892083849354e-01 7.500668884197304598e-01 -8.909118200329257942e-01 -9.500686941165368271e-01 -2.601002071599812226e-01 2.510681454243190447e-01 2.178706774188319401e-02 -2.633153255963265882e-01 -9.063358689469768192e-01 3.732803600657690346e-01 4.682881981823173306e-02 -1.468543766569125053e-01 -6.150937218779101157e-01 -6.115548622378492727e-01 -7.277285783653023588e-01 1.058372154563245182e-01 -1.781999284769457959e-01 6.648859648759869456e-01 -5.953131748061911699e-01 -5.959948595546372685e-01 -2.850036117787500545e-01 3.206876828319120687e-01 9.529076402011491531e-01 -1.006156503878071207e-01 5.305658150976183540e-01 -7.646479873972122920e-01 -7.074717595811441662e-01 -3.085464723003564572e-02
-7.573338728314095436e-02 -4.115520393036903313e-02 -9.175247472840849516e-01 -3.712006261376032401e-01 9.374238715139017464e-03 -1.377423272106571006e-01 3.533148844659656507e-01 -2.096739610907791262e-01 -6.865018106100644057e-02 -4.008393484378653393e-01 -9.801774401733633069e-02 -8.110808312577014734e-01 1.771191309931225699e-01 -2.201656902558580542e-01 3.493128401874704969e-01 7.946052057650470068e-01 5.058041677148891191e-01 -4.184951851380856458e-01 5.336455152534534951e-01 5.161176795332627076e-01 8.828940343465904173e-01 9.212349151246238543e-01 -3.712606517593418087e-01 -8.582948328273669325e-02 -4.964558829026304299e-01 -8.287511300582277585e-01 7.109977248513790204e-01 -4.395949298768176972e-01 -4.983905782773060955e-01 9.493010628379077165e-01
5.970553619672587242e-01 8.694706467151297469e-01 2.631675634919686257e-01 -7.697870009462811636e-01 -9.516943836643919630e-01 -4.846725888692794415e-01 -2.971305909630998499e-01 -2.635468512568678867e-01 2.755891785270334626e-01 8.244866249747029308e-02 -6.146625012137751920e-01 5.059463947958323660e-01 9.524319259296045725e-01 5.732061713875076236e-01 9.831432174899266130e-01 3.405145563786568519e-01 -1.982284547239366590e-01 1.607638759284241436e-01 2.063916222527389932e-02 5.435974041243853139e-02 7.243052853303523220e-01 -3.881304067841591099e-01 1.350120248969041425e-01 1.803347750713436490e-02 -2.272065158312511768e-01 6.770125999851780429e-01 5.686929994949390110e-01 -3.545901938114138785e-01 9.807826929841101382e-01 6.073405761130160618e-01
1.464494442858297052e-01 -7.949589151268281473e-01 -1.938907163074978651e-02 4.830818357951878195e-01 -9.028125644835007790e-01 6.265542949617812774e-01 7.102731395235092338e-01 4.699702487618810376e-01 -2.746992816813337290e-01 -3.341087681525709008e-01 -5.576637938393238514e-01 -8.313269227677616557e-01 9.407212153341127925e-01 -5.017097850505320977e-01 -3.053959737127537322e-01 -5.854609638640775326e-01 6.796841032116894832e-01 1.162465416162844906e-01 -4.553672278181594146e-01 1.892538021294423722e-01 4.317299346297889806e-01 -9.991576304351819371e-02 4.623902112094903649e-01 -8.571948287429943802e-02 1.128071672689333199e-01 -1.744416648397558445e-01 8.350708788270308491e-02 1.139946825230147565e-01 -4.276850615955869739e-02 8.918628063756981472e-01
5.299529577734380936e-01 -1.979204454397713031e-01 -2.741509896973929883e-01 7.194276153830171383e-01 4.106527094092621843e-01 1.000686015489977015e-01 3.197752667166190443e-01 9.092850372184143604e-01 6.367416852634605329e-01 -2.214608803304396814e-02 1.313635978916860569e-01 9.715380029731437439e-01 5.229024468729453340e-02 -6.941580395237715306e-01 -2.361892094936558495e-01 -6.570959925421915315e-02 -6.448777071703398756e-01 8.444355578779522142e-01 -1.197243937589921314e-01 5.116337127210869307e-01 1.912017846734590798e-01 7.393346204320212500e-01 1.094068277991487315e-01 -3.884087456478786393e-01 -9.786691244997833827e-01 -9.632136644471636089e-01 4.197099715404211673e-01 6.108309986801352398e-01 -4.220587140789361924e-01 6.065146870328674833e-01
9.620875687877393778e-01 9.495506258807497046e-02 7.698770037433486646e-01 9.883645465184757173e-01 -9.585627699832006687e-01 -5.256424592462098921e-01 4.539533733887477496e-01 8.942012879109048074e-01 7.107109638028867860e-01 -9.228353830216863285e-01 8.999255468435801708e-01 8.646661131464571381e-01 9.197924461976794697e-02 7.486628676682542949e-01 -8.738417214716154291e-01 -1.857087866388342223e-01 6.539395413714397254e-01 3.340950711370500870e-02 -1.487327144473410412e-01 5.011868589692466402e-01 -8.729162993791611536e-02 -9.119627582881218997e-01 5.345763479201125490e-01 9.285975016991374620e-01 -2.546759711548247096e-01 4.655591246998146415e-01 -6.052276382739779637e-01 8.101582789848917887e-01 -3.356100814135338228e-01 4.986689143774125088e-01
-2.669344710878526761e-01 -6.294092155549886325e-01 -4.023043778474228449e-01 -1.297926688798073658e-01 -2.086602574871150306e-01 8.576371370429392016e-01 -2.527692083403912382e-01 1.064514019355108920e-01 9.604104805889764895e-01 -7.154081924031282513e-01 -4.645889517982225159e-01 -1.646211319881530633e-01 7.199857710320205495e-01 4.650233211022624658e-01 1.036198009125357256e-01 7.160931173389778470e-01 3.766222288333105350e-01 4.111142950853840516e-01 -6.989896663687827916e-01 -2.281727047700544686e-01 -9.258568306797275715e-01 7.976026743013410192e-01 5.544623955569802920e-01 9.165174028535302275e-01 -7.718332583511228195e-01 -1.880370620872857668e-01 7.512717816852693131e-01 -5.710535591136892686e-01 4.364525721773116484e-01 -6.115429487618991855e-01
-6.378994813866564195e-01 3.432460328894821888e-01 -7.204779749093088714e-01 -5.637000992484544337e-01 8.072248399405397290e-01 6.535535293794348943e-01 -7.401094590866258427e-01 -6.930418182498084834e-01 -7.404918778604033802e-01 -6.046625277518571373e-01 -3.723446070839602218e-01 -9.070806776076022482e-01 8.290082444658392058e-01 -8.096560416722577147e-02 2.503173734509790416e-01 8.409792618378382212e-01 -3.111009726370589368e-01 5.497699989940665333e-01 -9.792258408559246785e-01 -6.046943777740914072e-01 -2.667441562380088449e-01 -6.481788470949605419e-01 6.223268578946846707e-01 -7.636325795614365974e-01 7.729389599791706145e-01 -6.464657746896277368e-01 8.198426146361196265e-01 3.610257492408852631e-01 6.978601749385282549e-01 -2.130513562847679079e-02
7.308129480600079608e-01 5.770980197540562795e-01 5.989790688281872999e-01 -4.074028054151481726e-01 -3.566194478757249708e-01 -7.422328910572645322e-01 -3.651046001830332011e-01 -9.464930322046498645e-01 -6.503280429370948967e-01 -7.411467120058267133e-01 6.895722156211807619e-01 5.209197560967723240e-01 -1.123186249154030925e-01 -6.403718139142698940e-01 6.480176952505631860e-01 8.915366181940247436e-01 -6.436102810842152522e-01 -2.529805527124786013e-01 -6.542489322739715174e-01 7.943388126721840914e-01 -3.528190389647027914e-01 -3.853943133152289979e-01 1.448202765892546984e-01 5.020893103025698689e-01 6.616697738288932484e-01 9.791362903805071738e-02 -2.474580728021773257e-01 -9.559555535501769175e-01 -8.186807109191092113e-01 -9.843601153206105181e-01
-6.892693357512900132e-01 -1.653012773171158578e-02 -6.880246512511623003e-02 -9.162876243712927415e-01 6.140832803074351975e-01 -7.671424270912194920e-01 -7.059075958063456557e-01 -7.105257762433263569e-01 8.099730956595887488e-01 -7.837886566961203005e-01 3.586995600656788241e-01 1.996725498333147275e-01 7.097900409924107201e-01 2.780174380761746278e-01 4.800924257690948327e-01 -1.418357240290808452e-01 -8.488516712215712356e-01 -3.711523086251957704e-01 9.332074024349144015e-01 3.845460730426586426e-01 4.599448618142905065e-01 6.220788595244024499e-01 -4.732291389334124521e-01 4.455945616861423098e-01 -9.197938368250571095e-01 -1.114382950292402974e-01 -8.979329177089589997e-01 -7.874495787286059922e-01 -1.504910803339103431e-01 4.020925439318772110e-01
-3.965177137825071085e-01 6.458273423923157619e-01 -4.683857661855930221e-01 -3.201384390935397839e-01 -5.303343842456906820e-01 -8.568210361670192121e-01 -1.288715369255302168e-01 3.446804452801104368e-01 6.718923882625784660e-01 -2.679043882043603553e-01 4.544120154899065067e-01 8.335520007820884647e-01 5.751662894230862300e-01 9.365268708461080838e-01 5.577668009674330296e-01 3.086799052703248503e-01 5.870309488058016445e-01 -7.089039773129961475e-01 3.944406938484821268e-01 2.977418714034587577e-01 1.190926039778257284e-01 -7.067416378986068892e-01 1.805685751159855634e-01 6.117293590319630159e-01 7.776941284834488766e-01 5.933309049850543637e-01 6.162400832600041234e-01 -7.162270048335828143e-01 -3.745631640504496485e-01 2.147474628096490701e-01
-7.079142399327778001e-01 6.519561195266760922e-01 -6.486219129832018204e-01 -7.810541628449021445e-01 -5.920813781134910414e-01 4.297861573068284535e-01 7.506772282340523628e-01 8.390325779367939774e-01 1.779931871227646845e-01 1.063798736421612823e-01 9.291961352240785121e-01 -6.087843016774185934e-01 -3.637796936475530263e-01 5.297848866697134618e-01 -4.994804318936896248e-01 2.318372580030898522e-01 5.308948867248437509e-01 8.695323413174804728e-04 7.648298485939954983e-01 8.525969757253015757e-02 -4.586062551773018026e-01 -1.479830469287017891e-01 6.703621753926378712e-01 5.495429240582541119e-01 -5.626235531976417903e-01 5.272176111172939272e-01 -1.389918631055360176e-01 9.778669261013273051e-01 1.802424205688557546e-01 9.670222157040830879e-01
7.995007594858201116e-01 8.088948806972999783e-01 3.832176038523866790e-01 -5.482786371918115798e-01 -4.734401124898164337e-01 2.907208072100513352e-01 -2.110735351173016472e-01 -5.764679704935953275e-01 -1.792088882668629868e-01 -7.532682185110259887e-01 -8.626776999173442206e-01 6.711513682074841114e-01 5.154548160947218793e-01 5.037166645218424943e-01 8.923952992405816964e-01 -9.969490254271777818e-01 3.171927528569196131e-01 9.200163468905147024e-01 4.318404138164870787e-01 -7.336914064451705020e-01 9.945213432249475627e-01 3.795956198296988049e-01 -3.457038711853690494e-01 -2.118295636526752457e-01 -2.699005822987456948e-01 7.396097188659556121e-01 3.152240910862798007e-01 -5.833288315585918316e-01 7.598296693552875070e-01 -5.758481740404362004e-01
-7.730653696990752444e-01 -8.586082490645638998e-01 -5.209462179050627917e-02 -4.682180013948844532e-02 -3.443284255413232575e-01 8.615816621376188866e-01 5.465560997497393991e-01 9.550446303837207829e-01 6.293041416364981711e-01 3.718337777957116952e-01 2.891020970035691473e-01 5.631970958870129440e-01 -7.224099649331228168e-01 -4.023196407626070670e-01 -3.078704589073555375e-02 -4.762396960310739669e-01 -7.568639778548547081e-01 1.371241149426696282e-01 6.426852294337810356e-01 4.523176918999103346e-01 -7.704346614767738632e-01 -8.433446868609242308e-01 -1.486808047248684428e-01 5.506257126064368901e-01 -6.813178879019796685e-01 -2.939927670958395467e-01 -2.219957248510433523e-01 -4.956677627274634901e-01 4.153152933497048505e-01 -1.572907463077222179e-01
1.749465795841682603e-01 -1.047924629247933836e-01 2.388400188635635413e-01 4.076149348023523356e-01 3.591806407539659407e-01 5.819821809398761925e-01 -1.178891302717868239e-01 5.080450799509974580e-01 -5.131789959795209910e-01 -4.783120444849713326e-01 -9.065681314835405402e-02 7.860821448706909464e-01 4.115967592144746945e-01 -8.506998341653593254e-01 5.590287623042478060e-01 8.141893542610330048e-01 6.691172138672105696e-01 3.657896673911862351e-01 -4.028524384027423189e-01 9.216419938504434306e-01 5.944226671142502916e-01 6.320334666490956543e-02 -6.898143966254817183e-01 -9.436111492506737974e-02 -5.919039087324962090e-02 -1.248154949601676389e-01 -3.552943975679909716e-01 -3.189256401684474884e-01 -3.927478765547771644e-01 -3.681938625709400004e-01
3.320309083329811561e-01 -1.904173396144242525e-01 -2.297597811710929416e-01 -4.476094516119736855e-01 -8.753088663325705454e-01 -1.303832778832690886e-01 -2.294723878952522611e-01 -8.868771097242158508e-01 2.513757450313784947e-01 6.795710561145076323e-01 -7.295679573973690157e-01 7.300692660392049671e-01 2.047465158087413417e-01 -2.878346459264708446e-01 6.535400748829370832e-01 -3.279972600170673047e-01 -6.901998634798689469e-01 -6.593908517821915893e-01 3.321065619069379360e-01 -7.173378535011775137e-01 6.220994089330923460e-01 -7.580536373286532736e-01 6.221761396340201866e-01 3.837459683445388903e-01 4.309114096036834041e-01 -3.976103746348486623e-01 -8.116638724699867247e-01 -3.492096386234028182e-01 5.583937247209252996e-01 1.206227056386456192e-01
4.399530728591323769e-01 -5.396250548713245054e-01 -1.771664708739925653e-01 -7.836659489306045667e-02 -3.021818887178174262e-01 -7.716472995662165824e-01 -6.300527907219531931e-01 -5.219431552963365029e-01 8.063697477580809014e-01 1.278887356859670921e-01 8.189604248058360847e-01 7.737057257139655642e-01 -8.088344091849030137e-01 3.413983641568593685e-01 2.212279612464253808e-01 9.955763606908917263e-01 -5.086035588370477756e-01 -3.156162661923583770e-03 -9.537292937945989202e-01 -3.558558742955735821e-01 4.682291695774867257e-01 7.371515654264553241e-01 7.722857681430775889e-01 2.589643121588948160e-01 -3.608792190843339385e-03 -2.643154926274355332e-01 -8.668945476971763320e-01 -4.153212319230127902e-01 -9.627165412696716551e-01 -8.334850892942388123e-01
-4.125191976646520042e-01 -1.338523291755381039e-01 -5.273080537367665910e-01 6.763081194776926486e-01 1.060641693339674924e-01 -5.444186578807339583e-01 8.600627047102302747e-01 -3.047691334091564563e-01 3.691667034757190602e-01 4.740435719150672411e-01 -1.655416492484100000e-01 7.567063575930826902e-01 7.475983316752415897e-02 -1.147834981772951624e-01 8.788120223988289403e-01 -7.494857254985891615e-01 -1.255520412386522400e-01 8.720491486472473630e-01 -5.563710046061116632e-01 -4.623373879190255664e-01 1.736964974085621755e-02 -1.003962269230709026e-01 -8.843109635636613453e-01 -2.440410278794467591e-01 4.642467983663808861e-01 2.649195221355684082e-01 -8.541690301983024813e-01 8.935841862227291710e-01 -4.895444277874990147e-01 2.558592727931585098e-01
-4.512203956709247010e-01 -6.272394616842779103e-01 2.732979376764914092e-01 4.431479621264293178e-01 -2.115770453588147193e-01 -8.016488188482386867e-01 6.729995162406805509e-01 -7.170913440578338682e-02 -2.074639124926577483e-01 1.516891467342686706e-01 1.768558421559317806e-01 1.332129193687625057e-01 -8.200697028272481148e-01 -2.213533244653340948e-01 -1.356358517781575644e-02 -8.397394808442422143e-01 -6.560865854994657465e-01 -2.530647497186273576e-01 -5.595128458662745885e-02 5.063180507261100249e-01 8.154694090325937950e-01 -9.362523632639748739e-01 -1.634925721885179817e-01 -4.762307516561770787e-02 8.565163491929891348e-01 8.800604375960997816e-02 6.705373286634120911e-01 -1.544755226744178589e-01 -1.440371152861151527e-01 1.648789649318765649e-01
-1.827423769887828731e-01 -6.018026459848538900e-01 -4.497148897088839026e-01 3.003445553825865866e-01 7.361174879149612327e-01 1.091369048702888617e-01 1.556074189998650770e-01 -2.934752146441045872e-01 5.137314738520255553e-01 6.725079532208114164e-02 -1.561772766467808271e-01 -4.653836689223607714e-01 6.274968940883327573e-01 4.199504166788682880e-01 6.437817649986135038e-01 5.059715175960821654e-01 1.853151288311241096e-01 6.728599899754255098e-01 -6.649410198085805579e-01 4.121801726013328282e-01 1.507770563499991057e-01 -8.800955250828969012e-01 -4.283523184445064413e-01 3.364454821642681726e-02 6.910408243098706826e-01 4.699744607309394029e-01 9.432829029950142719e-01 -7.937011453099316327e-01 -5.113555613403609756e-01 9.978819136581440485e-01
-9.265730170091021067e-01 -5.103967054791754832e-01 -7.815641701506105266e-01 6.458550888904807108e-01 -8.400030593568950099e-01 5.038804303144867047e-01 1.904602439041412354e-01 -9.516551203463939901e-01 5.476749248729622099e-01 -7.438278812526829542e-01 -3.876387055842640539e-01 -4.393581726064564874e-01 7.649796068583503139e-01 -3.506754277038303669e-01 -2.561871069543062984e-01 -2.154855149116533253e-01 5.620165587360003573e-02 9.465831881966013661e-01 -3.012065651591661064e-01 -6.582287042623786999e-02 7.473642793946777552e-01 -6.453178261635669766e-02 -5.651807617534870820e-01 -3.184798122639468376e-01 9.238111386742078879e-02 -6.121529950204682713e-01 6.783387654124838073e-02 -9.337081969210716537e-01 -7.715961041871575166e-01 5.462536381261076102e-01
-3.309336634325558690e-01 -9.076271976299622457e-01 -1.392506008424962693e-01 -6.292358398041328904e-01 3.918122428464668183e-01 -4.351852565004715734e-01 -5.426415379198623601e-01 5.286842982857438145e-01 4.905141267199686905e-01 -8.634572137343346498e-02 5.482489857446019021e-01 8.117714028104548729e-02 -4.671313430150649676e-02 -4.132517463042041372e-01 1.031075515936193260e-01 -1.015830404278219024e-01 -1.209247113758601527e-01 8.051698019542165019e-01 4.598997271076005200e-01 -2.926694883321757090e-01 -4.294921625563953294e-01 -2.397019593365974088e-01 7.292358592963483765e-01 7.535075658402315968e-01 -7.517203642386121043e-01 -8.280889282501125992e-01 -2.937397911111347959e-01 -8.099093917135586906e-01 2.144259535016504736e-01 -1.719646907346644438e-01
-1.511780451017257776e-01 -9.616486383933074977e-01 -8.606659829126827033e-01 2.328634134594936012e-01 -4.319786572454853979e-01 3.000662203994025057e-01 -1.885459164994379988e-01 -1.303986816053204489e-01 3.647442252445279309e-01 -1.789972435274257007e-02 -4.741505032556527777e-01 8.639923331580019461e-01 -2.816299233808302049e-01 6.293094630183417859e-01 4.574353816808312545e-01 -9.600944014120940118e-01 6.177106891631319874e-01 -6.306324586294760337e-01 6.824497604739079293e-01 7.156205896700735813e-01 8.777028022635208204e-01 7.165511882588937453e-01 1.583980909193767328e-01 3.557862335331484771e-01 -6.388367773672030125e-01 -3.832696360142178738e-01 2.462968973239874626e-01 -4.809730579625602909e-01 7.871414208209625007e-01 4.121557415022779614e-01
3.738460557255750549e-01 -1.058338324791228968e-01 -6.802975801486374485e-02 -5.242362538986203857e-01 2.794514365511065468e-01 -5.076753570635299251e-02 3.960723050403566758e-01 5.380133076604327602e-01 -6.679092522249743258e-01 9.902565337575117699e-01 -3.184754210129759899e-01 1.301757801237068413e-01 -3.298061924355597530e-01 -4.967253473225812233e-01 -5.057608544359574188e-01 -9.453230392694850215e-01 -4.742547805563251395e-01 8.242850994416245358e-01 7.668597036926537713e-01 1.872245912194391848e-01 -8.530011778645616438e-01 -5.211421564838844001e-01 -7.029131495262666007e-01 9.274734992453560478e-01 -7.219051042471119617e-01 -3.042412545841451932e-01 1.376803171251216908e-02 -1.059536830707330957e+00 8.126900868447612947e-01 -8.395317644135249502e-01
9.045686252968204721e-01 1.862423751101834057e-02 -9.832181522497226434e-01 8.401815506319566529e-01 -6.378053664109925025e-01 5.489929202968231170e-01 -4.851543590141231266e-01 -3.114005434573763886e-01 7.412172327914765546e-01 9.113032307090258577e-01 -7.079061892387804589e-01 -6.942405298642316813e-01 -4.302183236385313525e-01 -1.572412769847471303e-01 6.303544151410058749e-01 -6.629867611785206227e-01 -1.132984958334731507e-01 -5.252521432937244938e-01 -8.687411391735597732e-01 -4.171141294694541979e-01 -1.026136974564087895e-01 -2.278773333366913845e-01 3.543096720269363620e-01 3.148123969008082002e-01 4.670084769492060528e-01 -4.383727660616638100e-01 -8.265180402083787126e-01 -2.517222953033003141e-01 9.232606892302090973e-01 8.173818955083238524e-01
8.140429154589326477e-02 -4.921863309400288933e-01 -2.223717757771567771e-01 -4.615556513906537428e-01 -1.248985059888727128e-01 -3.975852547705088780e-02 -6.246451363662846035e-01 -5.611323442933703332e-01 8.268315215526611528e-01 8.228547284436914522e-01 -9.056928599662520396e-01 -8.634757254553405703e-01 9.987209223461057661e-01 4.170470378313399507e-01 -6.946321348506025173e-02 3.392340120562249428e-01 -5.643410326828298684e-01 -4.410673210505863806e-01 -6.623728051373332093e-01 8.247678498218036225e-02 7.964097967967206926e-02 -1.490453177326196872e-02 -2.271830813807825533e-01 4.277074327806420495e-01 2.832765008450036093e-01 -3.908736577004650603e-01 -8.818271722273528235e-02 -7.724853069613605953e-03 3.859460390831165877e-01 6.227116474242744282e-01
3.529642616227838814e-01 3.853336200469944517e-01 -5.707805553376043006e-01 -5.100374286071011065e-01 -1.051228312026854239e-01 -7.639137002505281826e-01 9.631315517405557580e-01 -1.738257216950117312e-01 5.679579657498691203e-01 1.090147694996330463e+00 9.277892000554198715e-01 -2.610072455392120072e-01 -7.761234527715042963e-01 7.234263766618714842e-02 6.068510512924432110e-01 -3.622959888013784768e-01 2.949384268948044840e-01 -6.457581035106441103e-02 -4.957009834102327761e-01 5.155472187241817439e-01 -2.654891700254394804e-01 -7.221952088909375789e-01 -4.545912659181608473e-01 -6.433509088636818474e-01 1.066992008923841606e-01 -3.414948774363917861e-01 5.293650870624625471e-01 6.724972594348624932e-01 6.824345412451523485e-01 -7.749051242684982244e-01
-1.533682810493116055e-01 5.983250742535951572e-01 9.384366537638229033e-01 7.689677492107587220e-01 2.557663929096728461e-01 -1.480264415301247583e-01 6.273522068112183936e-01 -2.256312915001729147e-01 3.148853189849390444e-01 -1.783292307222911488e-01 -6.040536369982665299e-01 8.241800564074915902e-01 3.801883497264074707e-01 1.433189482173349294e-01 6.130490245850173103e-01 -7.414060787859219070e-01 -1.048990376759171950e+00 3.060080335374810723e-01 -2.117577355470541822e-01 -7.773667745573902277e-01 8.341945004530421093e-02 7.131231444874623904e-01 1.534903217204672543e-01 -2.519118583187739957e-01 -7.279114244506529330e-01 5.689344944433555318e-02 -2.684917182452370085e-02 2.980667944042729167e-01 6.015953756925178642e-01 9.529977433551625188e-01
-5.926698671398352714e-01 -1.103408684480154722e+00 2.172100912661384109e-01 3.191881261008792103e-01 -6.853083146480549726e-01 -5.160347076100267882e-01 8.071184258318003790e-01 -2.641251621951397066e-01 1.351219963660375964e-03 -2.335191150718425868e-01 -5.717292039468895304e-01 5.076122908678485368e-01 5.328341229013645597e-01 -2.718510828418863046e-01 1.208312799230760182e-01 -2.788112755263294495e-01 -1.765510247958456402e-01 8.983599177255979784e-02 -1.634285664171876706e-01 -8.531223091164225059e-01 1.447848780045300592e-02 8.582432919248775827e-01 -9.323815273129137937e-01 -5.482312690446036196e-01 -9.665297699847789081e-01 -6.504550187969796449e-01 4.521177423040341203e-01 -2.470820770516687637e-01 1.568635369522320966e-01 8.730719362794842064e-01
-4.977691833203110039e-01 -3.460326499286004442e-01 6.235379424427377471e-01 -3.273515919307964928e-01 -8.294526022601628190e-01 -2.061047505712062800e-01 3.378120502521709811e-01 8.399954441356323465e-02 2.759773501257074546e-01 5.891387435476822532e-01 -4.840047961097991291e-01 4.051098924230666087e-01 -2.032085107518889766e-01 1.224307622429832432e-01 -2.483033341057548637e-01 7.727218698606399538e-01 4.802303525898689029e-01 8.219854701909921069e-01 1.404102266365556961e-01 -4.752789842861328967e-02 -8.984243863511074402e-01 1.066427801852894430e-01 -4.336374360861644517e-01 5.329913813244474552e-01 8.343672037303575539e-01 1.256688958653491214e-02 -7.782828422372650712e-01 -9.146749322463432197e-01 -3.899046563798889142e-01 -2.810987303996810849e-01
-1.215162008354374185e-01 -6.028006409959547618e-01 5.726784643493699756e-01 2.857598300954299342e-01 -7.431533164997566887e-01 5.065757756192109662e-01 1.021165137405772444e-01 -2.962345908700857455e-01 7.251833436469912186e-01 -6.269702701683624868e-01 7.591257728114056968e-01 -3.331017827816212806e-01 2.987704100389672046e-01 -4.642884343968836092e-01 1.576293951331248777e-01 4.533991845614103178e-01 1.070726463076221713e-01 -3.620204841942499807e-01 5.454661917276847349e-01 4.042674334526779045e-01 8.697864250064579750e-01 1.897424076212484573e-02 8.382191293464045234e-01 1.397223099441951555e-01 5.794534397104627033e-01 5.706121451016469281e-01 3.588902173257391692e-01 -5.719288970174575271e-01 -9.466715203086856212e-01 1.010915876122461698e+00
1.640900608329923585e-02 3.707506741505762760e-01 4.015611164352678730e-01 -2.548682562333907664e-01 -8.092559283488520716e-01 -1.441286331697133050e-01 -1.026798644246236458e+00 -1.222157521662003143e-01 1.627863211100835095e-01 3.474297459630255047e-01 -5.752677460009213428e-01 8.131115960873541715e-01 9.706405840777160288e-01 -1.412015756220329765e-01 -2.228223806472593993e-01 -7.715197409315146526e-01 -4.983448544096016342e-01 -7.318095431303163478e-02 4.281488761053670600e-01 -9.719826247679139719e-01 1.998438344202499162e-01 -7.213864418771378517e-01 7.501599475564806330e-01 6.209526544039900564e-01 5.152262328071314235e-01 2.873091774647906771e-01 -3.419129923704623542e-01 6.798889887211494454e-01 4.277437701498277289e-01 -4.622314218546834663e-01
2.066872195677039170e-01 5.955499184858999984e-01 -1.395114009097407071e-01 4.051831344619926112e-01 6.172452647164048400e-01 -8.813232171181700769e-01 2.325941261314013464e-01 4.563242906578793279e-03 1.135616515949742000e+00 1.177554973133422556e-01 -4.012061648509140377e-01 -8.104059691460527848e-01 -7.888367247752228195e-01 -7.274638831340488609e-01 -6.264669397374403870e-01 1.742150160129840586e-01 -3.945214637729640428e-01 7.821308642413075940e-02 5.156014555030514757e-01 -9.585647499026783702e-02 1.000559064220070571e+00 6.909804962368637504e-02 3.198516166133609229e-01 2.592722126670618521e-01 8.284824702443410738e-01 3.518815675596653758e-02 -6.642754054292491217e-01 -5.957398288497021133e-01 -4.413504556219101649e-01 -2.249410644535221049e-01
2.420470648815807035e-01 -6.193940224396756733e-01 -6.360410450586951869e-01 3.618295227774061540e-01 4.470510588205640068e-01 4.132473420033166422e-01 -5.217090944666240571e-01 -7.974729901560347889e-01 -6.692826332613811546e-01 -8.633579933699377928e-01 4.064019906076660887e-02 -4.814273305189614716e-01 -7.784650026651214194e-01 -1.677110970730435191e-01 -1.722036189762109204e-01 4.902583180484129111e-01 -4.510920597373085927e-01 4.772420846092992330e-01 -1.030962947479523439e+00 6.891740695560278906e-01 -5.063097941956833381e-01 3.828121837437261643e-01 -8.940779380751881500e-02 -1.171315821031109761e-01 3.020254682429962534e-01 4.604715190449848450e-01 6.360324975135904779e-01 4.152450760699516463e-01 4.656556989000483759e-01 8.590706914722253673e-01
-3.247157052818186451e-01 -3.095193632976371220e-02 7.150332880325405149e-01 -8.898883287709595802e-01 1.117038499812168656e-01 3.610970011293114235e-01 -7.564271213618267709e-01 -4.426835412661055957e-01 5.267395323215873226e-01 -3.568028316857081994e-01 3.392761721006782305e-01 9.898577101491502495e-01 -5.044302941600214973e-01 -1.934198576776470224e-01 6.929130296057844918e-01 2.286914947196556636e-01 -7.582206625051489679e-01 -8.394197659008378887e-01 -7.859807443355251166e-01 -3.561324128429155245e-01 4.796156340176552235e-01 -1.444050712993523167e-01 -5.940742497565336677e-01 4.583370865106431435e-01 -2.938293267794141461e-01 5.868577475388652154e-01 2.183550299454055377e-01 -4.578221656279899965e-01 -8.113365912788473855e-01 -1.075555855220103885e-01
-4.273061479742533697e-01 -4.967332433574432882e-01 -7.870558838378837185e-01 -7.498453773928943633e-01 3.423714132979769897e-01 1.550198016490822173e-01 1.569558747487154737e-01 -2.786510496390131597e-01 3.620407649578588627e-01 -7.074952400938515629e-01 -3.437756734053631913e-01 -6.101683698818666235e-01 -4.147145153026944309e-01 -3.217374707976687342e-01 -1.374362193023939693e-01 6.569467080687333427e-01 1.203540869037555278e-01 1.006761560042921944e-01 -1.632576001819536771e-01 -7.407231427943130608e-01 -2.139641742460954565e-01 3.124592992145199255e-01 5.516868031501619418e-01 -5.050739435320169557e-01 8.379908086824140456e-01 -8.100630915650979258e-01 4.130289793902046647e-01 -2.535007673418585017e-01 -1.902358982977333801e-01 -8.433619026926759688e-01
-8.982166206880887183e-01 5.487938956507043553e-01 8.332629958897888045e-01 -3.571185320950265307e-01 1.049925863461195069e-01 4.645924824903893136e-01 3.096891761435526247e-01 -3.260817776718930028e-01 -1.207562756193550878e-02 -1.893477311922223405e-01 7.331896850609969096e-01 -3.682606976993962888e-01 -3.364901021083769872e-01 6.029002694997912526e-01 -2.423826479945757895e-01 -8.504076339557182784e-01 -2.659382610436959449e-01 -1.106009285370177647e-01 8.404800828099183718e-01 -8.969453685024030287e-01 2.181072539182680459e-01 6.161415816216546659e-01 -3.504289023338196668e-02 -5.321676663098521276e-01 7.432688806018250549e-01 -5.694643523092547399e-01 -3.194572368133747342e-01 7.509791829258539719e-01 -5.363987536751093632e-01 1.001157371717465855e-01
-6.436492608356475520e-02 8.932390566342423011e-01 -9.557557689335435258e-01 7.284554879267386429e-01 6.228774502527451018e-01 5.054157981249153553e-02 -7.607455475564478542e-01 -8.347108912678664616e-01 2.655259127166615940e-01 4.700441224756968239e-01 6.420538337458796541e-01 -6.607839907123241874e-01 -7.405866238486249475e-01 3.234859205035801044e-01 6.832302421289354610e-01 -2.846982878118712312e-01 9.901596390019122840e-01 3.417784452498229264e-01 -8.628247170407826738e-01 7.362546686477959845e-01 -8.393171324995449822e-01 3.463639044752522267e-01 -1.700272650441501388e-01 1.643907816930187671e-01 -5.492859168313594109e-01 -4.206508840972281726e-01 8.781840640567920575e-01 -7.731545923721541147e-01 -7.597393408865037445e-01 -6.508553261756445663e-01
-3.523147732582771474e-01 -5.332915376003800612e-01 -6.469831395129556073e-01 -6.227658585322821683e-01 -1.650662047458407999e-01 -4.317246241895051351e-01 -6.865485290149965503e-02 6.499627655930787506e-01 -7.068488946372563086e-01 -2.145800853184225421e-01 3.790130533219488451e-01 5.766995551711537882e-01 -3.733261250868826209e-01 -5.784976026268565663e-01 4.365295305449565788e-01 -6.981288155918980998e-01 8.550443843643936725e-01 -2.678979782947692456e-01 7.977675482044871424e-01 -9.426807271281345546e-01 -1.080461559106234148e-01 5.576566018147122161e-01 -9.394988759371006859e-01 -6.580112589267276269e-01 6.433864300977222561e-02 -6.147111159416079884e-01 4.240828392756656462e-01 5.261199302478285489e-01 -9.175836418247460546e-01 -8.465592768663021683e-01
-5.653224954224578269e-02 1.809212923491088088e-01 -9.861858252664812419e-02 -3.363370170348287669e-01 2.426244084771262965e-01 2.271283903083805011e-01 6.055357828114629193e-01 -4.501301961550425723e-01 -2.351422608361466438e-01 6.567173233699590273e-01 3.988351108639065501e-02 5.608013195632324255e-01 3.719212977138413034e-01 5.268474403236722559e-01 1.666289315818199057e-01 -1.500601549767128784e-01 -5.802359186435981364e-01 6.485964717937164892e-02 -2.350417521554870603e-01 5.873926882134408167e-01 9.331562112586766489e-02 -4.710543491696568275e-01 5.792802509453751636e-01 8.858896565208422835e-01 4.045461587616567822e-01 -7.866469399466169410e-01 2.673025552471943733e-01 -3.856928526007741276e-01 -2.681163460291988709e-01 7.245241838316904825e-01
9.720424707625996419e-02 -1.212488566567559989e-01 1.096500280707781716e-01 9.152713128610783233e-01 -9.105742101273763822e-01 9.848488964050088335e-01 6.351132360973343882e-01 2.721234499467315437e-01 -8.082767688014396157e-01 8.571193725509074213e-03 -5.084011372921475314e-01 -6.075773644979283183e-01 -7.208507233396241887e-01 1.373409417771445096e-01 -4.804526170494078929e-01 2.768816810154433039e-01 -6.844556971363990883e-02 -3.420330383277965236e-01 8.177315388316186429e-02 -9.637410118711819962e-01 3.075146435832938341e-01 -7.649871922287809767e-01 5.482272316943981316e-01 -6.682748180234561186e-01 7.655804552733465052e-01 -1.060201532305604655e-01 -3.878934156660507337e-01 8.833865611510198779e-01 4.189455965494952583e-01 -4.668720844848859297e-01
4.878235554751213510e-01 -8.639154141720220004e-01 -6.823785289788106834e-01 7.089118083987728802e-01 -8.175721710062140435e-01 -9.702363163018168368e-01 8.923164908692169384e-01 -3.304681933760893475e-01 5.845884227236115560e-01 4.491515490406576827e-01 -3.312916132528256341e-01 6.706378883846333405e-01 2.309752060068555046e-01 4.587436516197718195e-01 5.698345166776770387e-01 -1.707552039111377429e-01 -7.590185861146445667e-01 5.942134911134218100e-01 6.841928203373863759e-01 3.596036977979257809e-01 -6.475054119161174349e-01 3.749088154660005223e-01 9.201247988483542972e-01 -6.551316960505380038e-01 4.428499972207029511e-01 -2.947051058842606874e-01 5.532884549986381018e-01 4.692708844117920997e-01 -3.498708979818834219e-01 4.240996468379663042e-01
5.317364860615096944e-01 9.537631909241814920e-01 -2.653765048608611732e-01 -5.104846635078279515e-01 -5.354524567123797318e-01 4.994564977957622887e-01 4.253376075415755686e-01 7.851689417588869624e-02 6.351583506625011477e-01 5.587414597145325956e-01 -5.345384531409376194e-01 8.624588266301997930e-01 -4.143813081397853537e-01 -1.831559525147876677e-01 2.891602283980654331e-01 4.230306760183584203e-01 -4.288037117821075217e-01 -5.722690837330355329e-01 -6.084828892363871589e-01 -7.619369059331086991e-01 3.492094467273416658e-01 -8.995800063014545156e-01 8.689621570934504824e-01 4.406365546502479802e-01 5.510790164030494598e-01 -6.305772525495654257e-01 -1.236565544845058540e-01 -1.688843417380514467e-03 -6.480038883337058131e-01 4.421561093074077853e-01
-8.570645255232572923e-01 6.712965027898618597e-01 -5.466556062292013962e-01 2.442322471851711974e-01 6.228213819980159549e-01 2.173635285649354598e-01 2.569681273617696049e-01 -5.837881524285613022e-01 4.344324861961275097e-01 5.353760930648111538e-01 9.562873674704194249e-01 1.113865087963442357e-01 -9.897376727985421896e-01 6.277031623869846477e-01 -7.825770537949822137e-02 -1.087077465052290609e-01 -4.657131284352865053e-01 -4.189928818241107078e-01 5.285702014040359886e-01 -6.538796060480477346e-01 9.593674964962999319e-01 -4.174633403291393985e-01 2.274027235525625801e-01 9.548906062154355334e-01 7.521088168910493588e-01 4.132222717057730810e-01 -3.763617666062382128e-01 5.595542747714412624e-01 -4.816873226387112794e-01 -1.750308120707564918e-01
8.846039505222508259e-01 -7.102538786097859491e-01 7.900146231834895838e-01 5.588447714940594224e-01 -5.292736332809123700e-01 9.454816164682691149e-01 5.630473103721967965e-01 7.615963934975782390e-01 3.343667769343911522e-01 4.506875810081736877e-01 8.699116896480155736e-01 -9.223460386842061709e-01 -5.633224531115345046e-01 8.046448212406116518e-01 -3.551649384837553963e-02 6.182829682247111824e-01 -9.059924476302712026e-01 3.057984604133069939e-01 -3.476459439303841020e-02 -7.161014828030745072e-01 -6.101418630703870916e-01 7.990500268107431081e-01 3.639231523925101075e-01 -4.474270545103062879e-01 -3.114227193273456651e-01 7.180851493413445974e-01 6.968864186238636904e-01 -9.795910087590873339e-01 7.748999653153048062e-01 6.925628288097832597e-01
-2.081021779630655433e-01 9.363791691232584702e-01 -3.430415707744534637e-01 -4.227487091997885749e-01 1.465435664300820118e-01 -4.516775291163673822e-01 5.797708418118333595e-01 -2.948914614578173055e-01 3.460548105719336021e-01 -7.913541654656615076e-01 6.861288677410086745e-01 -9.398268598349470704e-01 6.162564210694703171e-01 -4.697232585424961915e-01 -6.861072875440212826e-01 6.664908586545600366e-01 4.946632241689493531e-02 -1.056677209359316028e-01 -4.879206541246733919e-01 -8.995174249945540046e-01 6.882804574621040894e-01 5.239788596866794546e-01 4.846315228743467429e-01 2.873222382648875639e-01 3.007609605732552427e-01 7.445551737858401298e-01 -2.692557398576315708e-01 8.030908640993900116e-01 9.781141040964456135e-01 7.971822647466522138e-01
2.133235322245526644e-01 5.783669316934541005e-01 8.545796192788029932e-01 3.621722933682742229e-01 -8.184003506793953164e-01 -9.302075770027155022e-01 5.115400678437281856e-01 -6.156148513891587792e-02 5.587815430546753115e-01 -2.425299561226094414e-01 1.122720381536391199e-01 -9.547700593559301785e-01 -9.162249061627628643e-01 -1.892537173750733978e-02 3.769070511197296081e-01 -6.953599565780315128e-01 7.582175622821318850e-01 -1.694783686877492368e-01 -2.100088901792415419e-01 3.078086408318463918e-01 1.225081954906792198e-01 -6.575917597300580120e-01 9.205670962904463628e-02 4.393651354749450455e-01 6.169574100686636697e-01 -2.836258925689558175e-01 -7.219154662312786686e-01 3.437171219659515553e-01 7.430668385737769777e-01 5.427414567242367927e-01
-6.819683966098909478e-01 6.192748919982283412e-02 -8.047809704619626747e-02 -5.895324748162963369e-01 -7.905295694918901273e-01 -2.439316253083360087e-01 -8.863976049183172057e-01 -7.890167421691228755e-01 8.276955571613719975e-02 -9.223236818694328099e-01 -7.714329444910216216e-01 -8.050851819574954549e-01 -4.253433796149005963e-01 -3.193423739949283191e-01 6.257749919330958255e-01 -3.598490496050203435e-01 8.023841274018937986e-01 -4.238516396981024670e-01 -5.917611665297002332e-01 -7.402087752312740410e-01 4.290143426341974098e-01 -1.362502954780020759e-01 -6.288914748794234288e-01 2.323695224356102929e-01 -8.145103240331516004e-01 -2.245109064765263007e-01 -4.172168648081578946e-01 7.388901608139737398e-01 -2.505919482746697957e-01 5.706684939150511449e-01
-2.125842016252636746e-01 -5.166847415346668138e-01 -7.719565812211193201e-01 -6.250727462064573636e-01 -1.278554406032040291e-01 8.032654290068704794e-01 5.114901866745136250e-01 4.332938907840547804e-01 -7.338314992809183979e-01 2.976647549833451589e-01 -9.145469484994424025e-01 8.123736999943304005e-01 3.137871384188672397e-01 4.424367763196049297e-02 9.433749104344127945e-01 7.961132871442083703e-01 1.331250770316871612e-01 -4.205931069463382244e-01 2.588387338315065733e-01 3.835885063936220751e-01 1.783517935885036154e-01 -2.820086960878960269e-01 -3.711074609305847205e-01 -8.597934177821434654e-01 -1.014147365771778331e+00 6.194316815688706290e-01 1.060784298998247027e-02 4.577909616949245031e-01 -1.009071580742260554e+00 -3.454050948696137380e-01
-5.247121505266352237e-01 5.994511105922566419e-01 8.970911773500381825e-01 6.548683493717015747e-01 -7.584647727980013965e-01 4.979854571997178181e-01 -1.249620857571320104e-02 7.363292068085884878e-01 -9.103917151791302009e-01 -6.387237758357217077e-01 3.576007971881747793e-01 1.485527516049317542e-01 -2.284848869624444001e-01 2.519327005757484583e-01 -4.532068574002279249e-01 -4.733183802493646231e-01 -9.503840809537960066e-01 -6.964287723269892982e-01 -6.606887039839637321e-01 -8.575228869241274809e-01 -9.455089432046086539e-01 5.082402797663282401e-01 -5.402378414354866987e-01 -9.471006129066349144e-02 -4.733811199448600959e-01 7.660826799579529833e-01 -9.468825499399515788e-01 1.549118558872530915e-01 6.255109796187888760e-01 6.049235548875490087e-01
-5.787587920653233242e-01 -2.038473300228946794e-01 2.532778624864974737e-01 -3.201856140112247506e-01 8.752077931333449579e-01 -1.284474422043993536e-01 -4.604083757121409382e-01 -4.105881789265294901e-01 -5.960077801033167866e-01 4.495510855027248232e-01 -1.022209259139602811e+00 5.709122484356050631e-01 5.720330355802271116e-01 -7.844565893485060393e-01 3.335124673714026655e-01 2.812319114211622728e-01 -6.541636579598657519e-01 -7.109004240052857471e-01 2.895194550249268750e-01 4.977174223778874085e-01 -6.717494158295399531e-01 8.084395847959505721e-01 2.644112217303227763e-01 7.361209672637276658e-01 7.447808600455749772e-01 -5.705401169598481870e-01 -1.024144084235977914e+00 6.016065909984861237e-01 9.271088475141127105e-01 5.267904951051544798e-02
4.992477923379000093e-01 -4.325070810139121091e-01 -1.030737260452681214e+00 3.686098995156397162e-01 -2.382164909293212340e-01 -9.587544151680789106e-01 1.662850117862578192e-01 -1.355389691491084292e-01 -3.226771195592332830e-01 -2.747523288197156743e-01 -1.160297105080341007e+00 -2.665673935269463612e-01 1.849117383903189915e-01 -4.732439722978224461e-01 8.302322560856600919e-01 -1.735107582932850223e-01 5.476057528162415755e-01 1.072894188902319135e+00 -4.407538373598607895e-01 -6.708112939404433650e-01 -1.236544077580855050e-01 4.883785277663165170e-01 2.678696777554141484e-01 -3.996624902093692255e-01 -1.010433600078737504e+00 -6.524008552815328821e-02 5.576821468393409198e-01 5.878496006052149614e-01 9.104376688309638865e-01 -4.933018787947182071e-01
4.412089616715140772e-01 -7.562806281797040953e-01 6.534425056271707666e-01 -1.697499644469045166e-01 -1.354597333757759647e-01 7.016425835584151338e-01 4.294977853272115564e-01 -3.243467439287656129e-02 7.547777076008568287e-01 6.565704335992843532e-01 2.325431664944120624e-01 -7.662015468995997391e-02 -5.156923495135659063e-01 1.126332128871915694e+00 2.847916215216939606e-01 3.838639628319614472e-01 -1.908275968342350859e-01 3.452864388103984439e-01 1.476183598777751071e-01 1.122312371770623901e-01 -1.039907798157024832e+00 2.061538237575420429e-01 8.425092590654525981e-01 -6.864021654226463466e-03 -7.341784723778296273e-01 -3.954233383695126558e-01 -6.942817557396540051e-01 -6.081611848796762976e-01 -5.048365889341322604e-02 6.507256504345485526e-01
3.218092909494835729e-01 -1.328548409279808551e+00 5.958787488390004938e-01 4.935481112914317237e-01 7.307161450759366295e-01 6.803399219367415318e-01 5.784801590599757404e-01 4.938941335317599823e-01 -3.449215836575922345e-01 6.646329709467164726e-01 -3.713969881650375920e-02 9.052010316180075788e-01 -7.911885564661781389e-01 4.854106071863625305e-01 1.101685109069904023e+00 -5.554617880262899821e-01 -7.428037567454506274e-01 -8.847966868828242015e-01 1.043574419521181129e+00 8.995406807248810255e-01 -8.543510344218758767e-01 4.306414467789907996e-01 4.799211089047355355e-02 -9.660973852418669461e-02 -2.502854805253156845e-01 3.536456892782621764e-01 -8.677495389866949349e-01 2.955966923238234068e-01 -1.328438376954049933e-02 -4.476989434507321342e-01
2.168336589855665575e-01 3.279812984049608471e-02 2.811394486037465182e-02 -9.592135690842592544e-01 -6.726076498941983006e-01 -8.268711979806111501e-01 6.538435228678690647e-01 -9.201660680495264977e-01 -8.451784966767447171e-01 -3.005094888056285551e-01 4.488269539011350839e-01 1.037519594022601188e+00 -2.834372020139029266e-02 2.035704595547592477e-01 4.917675883159434991e-02 -2.182587930573898216e-01 -7.624738325382216519e-01 -8.818099332479939489e-02 8.718984778943592584e-01 7.142934076972017321e-01 -6.187315192848487078e-01 1.608837112322024643e-01 2.012021342275594968e-02 -2.328657798740033924e-01 7.892308210696442616e-01 9.152535321408143965e-01 -9.621875430007073016e-01 -6.311802925782817875e-01 -8.787111952050347119e-01 -6.904862022691628243e-02
5.445044912230500023e-01 7.082509393720974600e-02 -3.087085253654804906e-01 4.404863018212308301e-01 5.010211024806225932e-01 -7.923124076845667885e-01 8.961410654159029932e-01 -5.091355847784236888e-01 1.081463673768406353e-01 8.143217189957924207e-01 -1.470471572510436253e+00 7.869123974683270850e-01 -7.974338072867153127e-01 7.716156347335700882e-01 -3.546562522209843471e-01 -2.737963656985487049e-01 5.809709842130039714e-01 9.505829647886737677e-01 -4.375489282962834875e-02 1.035283775883045765e+00 5.443557905672558039e-01 -9.340374575614930619e-02 9.381348595911065402e-01 -8.598473595972780936e-01 1.169135575529887117e-01 8.921173741876140539e-01 1.755244026986940362e-02 -1.062581732198889961e+00 5.106171022261011272e-01 1.036108282519576207e+00
3.585849527477761867e-01 -4.885216447019291031e-01 -6.805342756682990213e-02 1.300921193408390297e-01 -8.715914636946111571e-01 -6.856226424290736698e-01 -4.338787939137863092e-01 -9.345200702661931036e-01 2.507211093729846407e-01 2.072311607252436128e-01 2.280481050097011853e-01 -8.968367457625272543e-01 5.915381112444880740e-01 -7.840674367807760892e-02 3.973622134492770797e-01 -6.937143792652571417e-01 -1.229764827944277161e-01 2.509396685690528650e-01 3.373830261424025367e-02 -4.479767893881251850e-01 -2.651041125079953154e-01 2.779161919925681179e-01 5.301491895890573236e-01 -6.988325039733364052e-01 5.312383761053582343e-02 -7.015648332316727354e-01 -6.608830074212878047e-01 3.942315177846296148e-01 -5.290314857620408429e-01 4.341585066376671964e-01
1.337668222357782488e+00 3.916818448338534320e-01 -7.739938460580789714e-01 -8.858286140725609714e-01 -3.839178291038307378e-02 -1.378175985558799943e-01 1.245272532408795874e+00 3.184282599414632320e-01 5.215929664872912541e-01 4.983036754306018890e-01 -8.753083770703261601e-01 4.676936939630055301e-01 -7.987484720341526678e-01 1.087845933722025427e+00 7.417925976550935330e-01 2.932926880131385694e-01 2.113372419283986725e-01 2.517016855923923102e-01 3.133188184933491938e-01 -5.109189659734804101e-01 -1.741316122224136065e-01 -7.619036476608698205e-01 -4.836053868261975808e-01 9.862041439517412744e-01 8.948186711823193917e-01 -3.843651354281081289e-01 -5.556763622856126794e-01 -7.521126784269295262e-01 6.643156106446420628e-01 3.343498587538932809e-01
1.235622937848011471e+00 -1.109687071802278741e-01 -2.949087467678258023e-01 5.787926821585912540e-01 -8.442703487034929344e-01 -1.937282065620268834e-01 5.166320059620996274e-02 -8.661965923436852899e-01 7.696198178990054650e-01 3.425877611962687697e-01 7.507778802091112924e-01 -4.286817979299640813e-01 9.932818329006647406e-01 1.567447229894996519e-01 3.601872399573601280e-01 -1.047675898424000218e+00 -7.287613530940047213e-02 -8.524686862462016457e-02 -8.415003777583156541e-01 4.896885253989594622e-01 5.483403930626368217e-01 -6.575558501981678683e-01 5.989416739245675414e-01 -3.734785115000344158e-01 1.928528508435422284e-01 5.149468608126391844e-01 6.105782504039602987e-01 -2.557435856931442042e-01 5.242657272553759018e-01 -8.545859594488317557e-01
-3.683007370620581256e-01 7.476042109216214371e-01 -1.550072408837886162e-01 -1.785930049806065678e-01 -8.937978797777520468e-01 -6.513630204481125618e-01 -2.328607526066264755e-01 4.066440545573588028e-01 1.053158371602766818e+00 -5.062758750991073198e-01 7.995029037839865849e-01 -8.992450929985936273e-03 4.755496653453815045e-03 1.692253319741413575e-01 2.098226891089306212e-01 -5.929452555371105271e-01 -3.209560503729899650e-01 6.686764175759882800e-01 -8.274196924943920672e-01 -1.072982483230998652e-01 -4.746800601653073937e-01 -3.855192393894577574e-01 -1.058076587991571893e+00 7.564802383674318342e-01 2.947405055312670927e-02 1.131686865902231942e-01 1.609045580994519775e-02 -9.008607189585102759e-01 -5.649119181070078044e-01 3.446681552253491043e-01
1.176398691542704489e+00 -3.432519764664379580e-01 -9.214605791494921982e-01 -6.056336869918427235e-01 1.351452617273657675e-01 8.934072046748238183e-01 -9.112379993712337312e-01 -5.722224407632371390e-01 1.302767176310625663e+00 9.010892323800204773e-01 -2.942840447677254057e-01 -1.675065423590129943e-01 7.126717535884156129e-01 -3.937338939162214890e-01 -5.411598082167271700e-02 5.121084067739934964e-01 -1.077203944346291770e-01 1.098040561700230677e+00 -1.021327750842736304e+00 6.231863216833659624e-01 1.915552629304796972e-01 7.622476171386634025e-01 -2.485488152767252878e-01 1.611162393646857760e-01 2.791333336969503143e-01 -6.093763999341990090e-01 5.180145820267192391e-01 -2.956303106591884333e-01 1.036325774537671274e+00 5.251595810062923420e-01
-6.936921030543993227e-01 -2.672672891599099654e-02 2.864562481794080129e-01 -6.917335540105215008e-01 4.618014184927473620e-01 5.965155796859795689e-01 -6.295833195521658432e-01 6.002847733830577459e-01 1.066940636490014027e+00 -2.414179815420221253e-02 2.310929610536683332e-01 -5.813640084369561256e-01 -1.956148080516918186e-01 3.568169563918880405e-01 1.407821582635877755e+00 -6.387056366945532693e-01 3.016480497414246731e-01 4.865096650446417148e-01 -8.623050534786435017e-01 5.382780244768652078e-02 -1.962325934398947980e-01 7.966786663650100575e-01 5.140139185586215520e-01 6.547659799106697598e-01 -4.965959583275413869e-01 -3.446903408347475328e-01 -4.712133039180074201e-01 2.559467333573067771e-01 -1.250409826602539298e-01 9.501308240978545427e-01
7.467131865102973887e-01 6.521397493093258335e-01 5.724426558567269341e-01 8.309980590233525533e-01 8.807336818519835298e-01 4.810254908019248599e-01 -4.899000091738760498e-01 5.256744555308630051e-01 2.168607780606505719e-01 -5.336676476310243666e-01 -5.154612035298989925e-01 -5.946768330404924446e-02 -8.641664870090083328e-01 -7.967136851861491564e-01 -3.349251470319190571e-01 -1.104324414161459211e+00 -8.591888148902580846e-02 -2.552403468667242478e-02 5.481240611048060485e-02 -2.093601678098156449e-01 -2.223591119174740116e-01 2.096515610009161978e-01 -4.798485299238947621e-01 -1.012382182318199764e+00 -9.787506480182454061e-01 8.972104531640768821e-01 -9.204154000454983775e-02 9.109827233828950988e-01 9.905946656179306919e-02 -6.793310118868474135e-01
-2.369908908352252042e-01 4.560281336918930450e-01 3.734853737023889342e-01 6.162959628147768321e-01 3.926886859102626248e-01 -1.114496655197485912e-02 7.668873893781004425e-02 -3.644662830852322122e-01 5.027250792194776219e-01 1.051875590733570176e+00 7.441535076521907932e-01 6.778610222388217199e-01 7.277575405027033595e-01 -6.295427574382994607e-02 9.951936074423725076e-01 5.466516740691452769e-01 6.389139215172526809e-01 -9.323742606366204611e-02 -6.736576388243366020e-01 -7.435877707449085605e-01 -1.370589229888615201e-01 7.821249317748312224e-01 1.975017456582655040e-01 4.773438644091304583e-02 -3.690755130649037707e-01 -4.959896821421764801e-01 -5.310771888215122249e-01 -9.183966391625236758e-01 -9.166312236942970593e-01 6.841170147957821301e-01
-2.027737801400707474e-01 6.122869496215617435e-02 -8.984980715498731840e-02 8.601986986986068784e-01 7.843061497264731674e-01 7.850288359523313053e-01 -3.392705625820977011e-01 4.217499917866537884e-01 -6.533498459892899124e-01 1.490350404774172799e-01 7.238598859568088351e-01 -8.242030680439886847e-01 -3.543652086258683997e-01 -8.953082361611892637e-01 3.754461515174423725e-01 -2.055451966392698726e-01 5.022195123297674701e-01 -3.480725087028267439e-01 3.292446548926619143e-01 1.376597444433369510e-01 -8.383024699134133950e-02 9.110423031126655413e-01 -5.293867343056349872e-01 3.670049642807617918e-01 3.319439700470310228e-01 1.752601262896157641e-01 -7.935821672049753195e-01 -6.780777321383847367e-01 4.272970391862888212e-02 -2.626761658445786463e-01
4.723588578924416970e-01 3.686614338898129284e-01 -5.543710510722926754e-01 9.573629039920811268e-01 4.266459837055465165e-01 -6.750681331274943631e-01 -6.738723730796633005e-01 1.663349339896185719e-01 2.583780353388087647e-01 2.626377135768717119e-01 -3.869151633215466846e-01 -3.681141955600878979e-01 -6.922970527549651143e-01 8.337809794240518269e-01 3.512110010286583206e-01 -8.217492024547188301e-01 8.992476105221492988e-01 9.815718334480109108e-01 6.912038741231090189e-01 -7.158738724429206668e-01 2.895399595100386914e-01 1.512761503024397935e-01 3.599630557748903503e-01 6.225075801915690432e-01 -1.015345883041206765e+00 3.557809386143666042e-01 -8.478880234881889244e-01 -4.257161156647727707e-02 1.501598268858474194e-01 1.288523217792291453e-01
9.636177528181983920e-01 3.550271674072267292e-01 -3.139853318615679623e-01 3.692518010704696207e-01 2.601395283499215449e-01 -8.194049419674637180e-01 -6.204664342542564048e-01 8.806683806951853821e-02 -6.449258857595738803e-01 3.669673630582163115e-01 -2.725053883915941055e-01 1.577398467762973489e-01 -6.898000566570037240e-01 -7.290870164803321396e-01 -1.048047568150004966e-01 -3.223555785991021327e-01 2.217066111195494793e-01 2.552406109853215255e-01 6.332829768586027974e-01 -6.987025652511277274e-01 -9.557057888838199622e-01 3.620353345586960758e-01 8.004400086946746873e-01 -4.019161413339504274e-01 -6.275969431225953965e-01 4.648471131856337646e-01 5.538462858106728975e-03 9.283453244938960625e-01 -6.228799509444089555e-01 5.160499653336679815e-01
-5.665767781344530629e-01 5.688698849755990938e-01 -6.509304728495000081e-01 -9.834350961746091135e-01 -3.661827859514777961e-01 -5.492919793375260484e-01 4.631551488074491241e-01 -7.326606779848207074e-01 -2.089500474769134114e-02 -1.224709047958751490e-01 7.196407990922027986e-01 -5.450763916456264901e-01 -8.498434505145706641e-01 7.239105266501197899e-01 -9.815013036798816981e-02 -3.633474672265005201e-01 -4.136351912036340117e-01 9.385297379546165830e-01 -8.160576428239149083e-01 7.178674733479220582e-02 -3.856056325488693703e-01 2.218129482575044442e-01 -1.369027038180256617e-01 -4.956415027590505007e-01 -9.912102281014485428e-01 8.113003549760183786e-01 6.713415289964753674e-01 9.947626830691774780e-01 -8.985317110024336751e-01 -8.914519737510318009e-01
6.152834448644202148e-01 -7.651889626156977986e-01 -6.195999690111293479e-01 7.488736471294754615e-01 2.902920982862966515e-01 -5.186575204917374116e-01 -2.742353391516718641e-01 -6.480284026524871788e-01 -2.466448922336286209e-01 6.178086590716853621e-01 -3.281113764360532592e-02 -4.874590873273230152e-01 9.494235535092876432e-03 7.007277871688768478e-01 -9.191433266273079106e-01 6.950942095669112586e-01 -8.009828021678819798e-01 9.005910532901240106e-01 -5.406505725567753995e-01 -5.707847456491528249e-01 3.409809871322995178e-01 -7.713716457143433569e-01 5.616901123046558197e-01 6.454954896067430781e-01 3.892418902993501906e-01 -8.695135949044843215e-01 8.077530679817559456e-01 6.468565416706821836e-01 4.830210782948471948e-01 6.085934513991952954e-02
-1.165715921211951667e-03 8.419050448404359344e-01 2.825443901538637892e-01 -1.705223290296409289e-02 -7.955208474693593601e-01 4.163658445915614514e-01 -4.714644615138110506e-01 -1.626075415991645734e-02 -5.344034863255029411e-01 -6.224234273970941089e-01 -7.247533244902955030e-01 -8.304907155472032176e-01 -5.121148637417785032e-01 -5.054139872839860104e-01 8.611113933434655365e-01 -6.896778422360161365e-02 1.707728211384340611e-02 -8.125163637820342899e-02 -8.822510296487529047e-02 5.324652358080659287e-01 -1.345499957939002567e-01 -9.271030443626273598e-01 6.634183001967970394e-01 -4.839765583258484050e-01 6.245932774506592899e-01 -5.482400731890013645e-02 -2.365471351242338649e-01 4.798875713171508739e-01 -2.763533479689872507e-01 -7.997289627588202165e-01
-2.901039003718411946e-01 -5.878600441130411580e-01 -4.899310223092741001e-01 4.335442316490477066e-01 6.502316399764120902e-01 6.132899891732542796e-01 -6.895799086308391779e-01 -5.993490529123087773e-01 -7.050632613402578741e-01 -3.180646375381990243e-01 7.733829774520417644e-02 -2.296451733747191803e-01 -6.619672347674755430e-01 6.004297705527679163e-01 -4.838101329671472550e-01 6.286342575611242323e-01 -9.086749210251856557e-01 4.631531653335440035e-01 7.030755340080834248e-01 2.689791747563610724e-01 4.364875788190439865e-01 7.533393330040734082e-01 -7.953655111306858760e-01 6.077751543545171220e-01 2.734479972381590462e-01 4.909324794584287721e-01 5.456375518324702717e-02 1.620852330465158975e-01 9.985130490784109858e-01 7.585872752474366321e-01
-5.827430364346795899e-02 -6.021657331380311229e-01 6.245655833789507394e-01 2.503457796791290768e-01 6.883889540222669634e-01 -6.677638848433439245e-01 6.099508692048095648e-01 9.887332082046269566e-01 1.938302527117199414e-01 -5.758357059116221421e-01 1.517623643118459764e-01 -4.668289120802653347e-01 -2.465467893299741475e-01 -1.899842730229716337e-01 -9.824858919307227767e-01 -4.079994218123317307e-01 -9.186650133778690996e-01 2.622973993190695907e-01 -8.672224241290933389e-01 3.292183276608314779e-01 -8.373667640790972699e-01 -7.897298990100496408e-01 5.717601518401441707e-01 -4.896274011877767979e-02 6.000643542351106197e-01 1.362275112738630528e-02 -4.915149318174362181e-01 -3.813607003318140731e-01 2.246912649944720342e-01 8.282922478880186956e-01
-4.329793827471317136e-01 -1.655348985260812478e-01 -8.731384875385641564e-01 -5.989760413801288319e-01 2.367433276106910012e-01 3.158029499423845032e-01 -9.272104893235859624e-01 -3.056827781280583300e-01 -9.848283809981536185e-01 -2.194670153104475163e-01 -4.326520357417203838e-02 4.489440194730176525e-02 -1.648832133075674167e-01 8.378096421538129279e-01 2.635078583242771444e-01 5.437431501947908030e-01 -2.599632300379681790e-03 9.953754515872308417e-01 -2.234222251191632647e-01 8.146010595917552166e-01 -9.592306922791378199e-01 9.995296675384729435e-01 -3.282464565690924180e-02 4.138383545594377932e-01 -8.375196180815766001e-01 -9.104454598855287184e-01 5.478922284240443918e-01 6.848674844057293098e-01 7.032450300515551422e-01 2.217130324785640816e-01
6.866585542397931619e-01 8.822955653990650626e-01 2.466384561505961526e-01 -1.183004468961186134e-01 -8.651674394706269089e-01 3.811509011630939137e-01 2.131194366086599234e-01 -1.010975527104255978e+00 -1.099629333170629719e-01 -5.339182711131981174e-01 -6.857086573476708358e-01 6.497935381816056788e-01 3.519699506781300280e-01 -8.873688839939067874e-01 -4.549292539059217599e-01 8.694307746601619424e-01 4.308400134023339656e-01 -4.618408505364889338e-01 -9.648623932840476591e-01 9.729914433529518458e-01 3.180155516803387372e-01 -1.805793148267544057e-01 3.544857734597586241e-01 -5.727680549273433952e-02 -8.164181461818719177e-01 7.392805870153369430e-01 3.409209844130509648e-01 1.696048253891977720e-01 -9.079744220440412183e-01 7.602093687440975023e-02
-3.918082478579558159e-01 -5.044135799129779718e-01 7.109545885587680303e-01 -1.490780449586125711e-01 3.650685523910791042e-01 6.038356881086169858e-01 6.935950199205184186e-01 -1.006608076230995019e+00 -6.311546544017256899e-01 4.144012447857455261e-01 -3.860154569511550227e-01 1.060269822101411324e-01 -8.670057821422064714e-01 7.037675825749680758e-01 8.632076906955021833e-01 -3.459353706497125258e-01 2.834457161581364903e-02 -8.708895424287128595e-01 8.850501728424727821e-01 5.530609054203077246e-01 -2.263503180129686765e-01 -2.717204076040981575e-01 9.567971079554733471e-01 -6.780693510141296843e-01 3.744229229353992494e-01 5.942478080968952581e-01 6.845845433204078567e-02 -2.620553574548775133e-01 7.798032574688233964e-01 -3.753455571099778010e-01
1.487332675934592563e-01 3.601457702893417264e-03 -6.355638965458296763e-01 -1.249615928050221703e-01 -1.298540747802614907e-03 -9.806441617161951729e-01 5.745744323008553089e-02 2.811979845822723881e-02 -6.832102700308254617e-01 2.494876868730292602e-02 4.190739177111904024e-01 -4.789202221091465317e-01 -6.716990623432909091e-01 -3.009598071039246148e-01 -5.220272659207049193e-01 -7.771177282863133140e-01 -8.060980114969189536e-01 7.924365360239127298e-01 -8.600819619936133087e-01 -4.564114609686315549e-01 -1.002970259874471415e+00 -4.272526377264630471e-01 -6.267816038017026692e-01 6.173814706326790497e-02 4.633835334069941747e-01 -3.814277839412993920e-01 8.775110840683149060e-01 -5.753508098535722315e-01 5.968861786761749944e-01 1.005704470424297670e+00
-4.303761953414240726e-01 -8.273145659306103683e-01 -1.010280287909619129e-01 5.549115124027593771e-01 8.348299287662713786e-01 2.518859076227087934e-01 -9.606770480050312866e-01 5.799070254453765338e-01 2.836383027132666768e-01 -1.951448936293159186e-01 -1.077385310744912728e+00 5.270800689015692209e-01 -1.830295805472901549e-01 3.588075945722755677e-01 7.086449979346746142e-01 3.723974926323969648e-01 -7.271111982386703199e-01 -4.460323350171335743e-01 7.520990318523110840e-01 1.751765146017667321e-02 -5.358220481772411059e-01 6.881454225916420198e-01 -6.783862141980703253e-01 2.543901344440895884e-01 3.118004969980955887e-01 -3.023309169840133204e-01 -7.563939354800325310e-01 2.600559243210500693e-01 2.769321349861473269e-01 3.055467025895217126e-01
-6.346145057481526741e-02 -1.268307677332096484e+00 3.149925465990827123e-01 -4.112335986381087660e-01 -2.023295968559159219e-01 -9.545025121708110571e-01 -9.120673946951451949e-01 -1.132617472068770503e+00 5.900163636679975898e-01 5.613491014150884251e-01 -1.658567127804594643e-01 -5.817119219192725676e-01 8.511521904697328944e-01 -9.833692775119912133e-01 -1.865509090544790749e-01 -3.218683266072649984e-01 2.303457034026888117e-01 8.024539906728359595e-01 4.806615540333696868e-01 4.618370650868436345e-01 2.410203000062119683e-01 4.482520296202032184e-01 -4.463632071447889982e-02 1.749379088442656327e-01 9.600179232600146717e-01 8.644756260575159335e-01 8.046203692107909422e-01 -2.201825577055590011e-01 5.613107221835357263e-01 -7.538024289210698559e-01
-1.610142689688033035e-01 -9.503352517471511662e-01 -4.591987269248500869e-01 -4.977087248215937287e-01 7.940588253139121422e-01 -1.239815415284521771e+00 -6.750998929952890804e-02 -1.180618790659808681e+00 6.917040671197808299e-01 -3.362535873833182309e-01 -3.223848070655210927e-03 6.022575122783384582e-01 8.244587637704563210e-02 4.814831844114809689e-01 8.739353758132109573e-02 -2.913871252962442204e-01 -1.614944369574430050e-01 1.593433079933490870e-01 -1.796490314539863353e-01 1.575637878972107053e-01 7.857530099108862576e-01 1.200649286436192009e-01 4.067062334617106978e-01 4.765269608011654667e-01 -7.615381990966366699e-01 -5.173306610293781915e-01 -9.795518141133151557e-01 4.164199378762514780e-02 5.580872106792150733e-01 8.879861547197100136e-02
-9.916467765244170451e-02 -1.259468841838669251e+00 -1.298193909538165158e+00 4.267222520223475368e-01 -1.972705298132498564e-01 5.096683011197032931e-01 -1.803042715198821255e-01 -5.589180321711754162e-01 -3.501433280146972193e-01 7.247816893613399092e-01 5.781520401271170173e-02 -5.787212624507178660e-01 -4.683037092200514340e-01 2.262082982175901424e-01 -4.738137724546652163e-01 -4.601814085922008024e-01 2.480418596494624595e-01 -3.023514035517062548e-01 1.347137534888707577e+00 -7.681305916475256179e-01 -1.429172977788039645e-01 6.795856330621202757e-01 1.273651668126071258e-02 1.004560243054218205e+00 -8.449207078377621860e-01 -4.837086512048796583e-01 2.514621565323912344e-01 -4.279701963875506832e-01 2.307668823468297103e-01 -5.231745092933000052e-01
-9.714305907023939035e-01 -2.552427324807546305e-01 -7.033529335649247871e-01 -2.998921833783885129e-03 -9.838199029473273516e-01 -4.359592327883391460e-01 8.895886415078475551e-01 -9.946693679571364521e-01 2.541306929910064905e-01 -4.898834907429563401e-01 -1.821933349488841572e-02 1.136719110706203850e-01 8.739462620182790742e-01 -2.316794783453103024e-01 9.786122954531362161e-01 4.886257995716419833e-01 -5.309118361426688748e-02 -8.678369953557979466e-01 8.845775719845964113e-01 3.343250534788717032e-01 -6.447995354595403850e-01 5.251879787539577293e-01 8.293447506429176830e-01 -3.230987947582305009e-01 -8.219930721602927148e-01 -8.853295479071588980e-01 1.126727701024855754e+00 -7.357586932281214853e-01 -8.054028700794479967e-01 3.740303561008360145e-01
2.318713524061885856e-01 -6.086543064153915328e-01 1.744035748629403915e-01 -4.870466221698944720e-01 -9.799460985492317588e-01 4.610136042278410451e-01 -5.034342508893136642e-02 3.063491471060934002e-01 -1.094973325224628091e+00 8.592535639979883566e-01 -1.357555638827604438e+00 8.190267826994140909e-01 -8.936743551505363925e-01 -6.421443911596526055e-01 -6.775129697369980386e-01 6.343072878652700197e-01 3.504805825161018684e-01 5.242875508112969651e-01 3.545984319711033561e-01 6.885698331809328443e-02 -6.511475328702213128e-01 -7.470973828220967006e-01 4.015187003519601894e-01 3.432324163494535618e-01 5.381269661350173150e-01 4.443062093849982075e-01 -5.451565156873295903e-01 -6.068810729610345511e-01 5.963794190476487955e-01 5.182447459202502715e-01
5.683839889621110641e-01 -1.037222454332858090e+00 2.411087108665277423e-01 -5.664833080834588142e-01 -7.005236905500675793e-01 6.155676871410751261e-01 7.419911143252065910e-01 -2.093243273646901992e-01 3.385753649423958733e-01 -9.965555660650262659e-01 -3.810337057248613379e-01 -5.714325567809845907e-01 5.267463548371951187e-01 6.341813688540153260e-01 6.324979716058821977e-02 -1.634069153748481107e-01 -7.343558771658286188e-01 -7.801961602041547206e-01 8.831487208227853936e-01 -2.475539219253248546e-01 4.181252269479459605e-01 -6.035795374650221312e-01 7.354909068592554444e-01 -3.935482628420469142e-01 8.159763453972043168e-01 -7.522343980170180799e-01 1.177131484595178718e-01 -2.623041246990990283e-01 -5.708541725982821946e-01 2.722921238550873868e-01
-3.278290798089936731e-01 -1.215998968164416327e+00 7.168163737010502246e-02 7.028249192995063011e-01 -7.435913547547383651e-01 3.399055533412631003e-01 1.759633571829229526e+00 -1.742380270159094025e-01 -9.288944457312213743e-01 5.352506937005910848e-01 -7.397470701149008177e-01 7.668198683559531714e-01 -9.461792457124361677e-01 7.378579621670450228e-01 6.323161621134416599e-01 2.545434577508549623e-01 -9.210100805231674626e-01 -2.618853027265803379e-01 -7.015151857294094073e-01 -3.085344565645724568e-01 -8.199112307509295317e-01 -2.663379166357737748e-01 3.500559241612199446e-01 7.001097677051665302e-01 5.536635334759344718e-02 8.619054261913137172e-01 -3.990881623274311063e-01 3.159678375015013141e-01 -9.298482924456662468e-01 6.856484198770652627e-01
-1.669157519591975003e-01 2.092866041814062938e-01 3.014618264321017871e-01 1.284373374162253723e-01 3.708378238535053883e-01 6.294773685619814430e-01 1.646124236541782748e+00 1.206075147578061918e-01 -1.251381451987611812e-03 -6.730886329723442252e-01 -5.334400869340218954e-01 5.811055001909400941e-01 1.564455732669699228e-02 -3.843282987324244115e-01 2.064126617461971291e-01 -6.596428874533037945e-01 -4.269165085291812822e-01 -6.108219775935592732e-01 -7.475773840560108463e-02 3.575433450501946386e-01 7.153832275598823731e-01 -4.455708370148763198e-01 -9.812219803637195481e-02 -8.571536116335980449e-01 7.792810482987087006e-01 -5.467124645924853477e-01 -7.456743019787377413e-01 -5.927395587714139324e-01 4.008683741845466275e-01 -1.228805795525799854e-01
-2.890865220738185193e-01 -4.778494786436784381e-01 -4.037965932687810899e-01 2.409529903514127658e-01 6.946107418581329851e-01 -4.522679124745623835e-01 1.183192663236235925e-01 1.532755048800518161e-01 5.434386268245901958e-02 6.176468120501468206e-01 4.538067258049134911e-01 -6.842364376484623145e-01 7.201907297032961175e-02 4.724611661547495900e-01 -6.886650956213024033e-01 5.924255845752741667e-01 2.589981713999165991e-01 -1.092331818696332446e+00 2.469555045436497009e-01 5.577031606750817438e-01 -2.813055462936303042e-01 7.533159166403152751e-01 4.169814696525379616e-01 5.679835650655266216e-02 6.241915926604703069e-01 -4.081889875949540891e-01 -5.430942960701962141e-01 -2.741437775098700125e-01 6.433791903620396102e-01 4.529964451240033885e-01
6.080077709641262818e-01 -1.035460068894488828e+00 1.051718242254811031e-01 2.190805884863563924e-01 -7.108744001935167756e-01 -3.829685374339608650e-01 1.463545119850830356e-01 1.106991148962237270e+00 -5.960131026204948945e-01 -5.349024833413063007e-01 -5.565253419159726933e-01 6.721777319799169259e-01 6.690018349656721153e-01 9.330128880237984479e-01 5.612161926244630950e-01 -5.152312880209801715e-01 -6.263780876648410434e-01 5.451372087338682837e-01 7.092468043431917613e-01 -7.815206612313504442e-01 -6.530612981843626486e-01 1.899891327534676891e-02 -5.129225017449387525e-02 -3.318355029075757967e-01 3.003774516161524660e-02 -7.362538374734207691e-01 -5.897165612144587010e-01 3.723983559143073663e-01 -5.886187087524930028e-01 -5.714940553513264687e-01
